0.55761,0.34747,0.10892,0.16618,0.39849,0.1025,0.40939,0.77308,0.18905,0.54136,0.06412,0.48338,0.37582,-0.27992,-0.12541,-0.23338,-0.3302,0.31258,-0.09758,0.04046,-0.02289,0.43242,0.66804,0.28779,0.11159,-0.16031,0.51591,-0.04994,0.36659,0.24348,0.54061,0.54492,0.16237,0.40468,0.54213,0.42879,0.12521,0.17573,0.2743,-0.25945,-0.25759,0.44703,0.32314,0.52744,-0.01224,-0.12481,0.20735,0.60645,0.47314,-0.12511,0.47025,0.51815,0.28835,0.06878,-0.08755,0.47867,-0.34978,0.33495,-0.20831,0.45168,0.09066,0.08792,-0.06218,0.4224,0.1828,0.27932,0.18491,0.69573,-0.05759,-0.21,0.17209,0.46112,-0.07664,0.8231,0.4016,0.37925,0.22282,-0.42111,-0.21953,0.6872,0.3501,-0.00346,0.25759,0.20916,0.01512,-0.16458,-0.53383,-0.32882,0.61693,0.43113,-0.27576,-0.34133,-0.35045,0.03871,-0.38132,-0.52962,0.12493,0.46297,0.35799,-0.31797,0.38651,0.05529,-0.42435,-0.00843,0.705,-0.04653,0.20148,0.652,0.09107,0.00032,-0.12009,-0.11451,-0.0846,0.63355,0.32289,0.6807,0.6051,0.48592,0.9485,0.872
0.43465,0.68993,0.3242,0.36778,0.16219,-0.19934,0.64228,0.03743,0.5005,-0.12632,0.56967,0.57278,0.50534,0.20832,0.04037,0.12812,-0.03719,-0.07831,0.08413,0.03455,0.7657,0.33177,0.59004,-0.12643,0.6054,0.68763,0.00423,0.02517,0.09962,0.29427,0.62344,-0.19196,0.53105,0.29667,0.45662,0.24918,0.27996,0.10238,0.20589,0.39873,-0.03975,0.13524,-0.03827,-0.16552,0.43761,-0.35522,-0.01191,-0.34343,0.17442,0.13794,0.16375,0.033,-0.35994,-0.45232,0.0745,-0.40612,-0.34641,-0.39442,0.1464,0.0089,0.05915,-0.02005,-0.19888,0.01913,0.33902,0.6088,0.01228,-0.08908,0.20769,0.12204,0.57572,-0.25939,0.1599,0.2255,0.49081,0.32177,0.2183,-0.35978,0.24202,0.1896,-0.07635,-0.01704,0.20255,0.3047,-0.57004,0.09444,-0.68787,-0.22376,0.02978,-0.01434,-0.00704,-0.30863,0.24182,0.32477,-0.48572,0.2281,0.29757,0.37861,0.5379,-0.38873,0.0857,0.25006,0.18197,0.28187,0.32312,-0.0957,0.48463,0.30821,0.7026,-0.25028,-0.14813,0.3295,0.10583,0.6707,0.722,0.24998,0.55546,0.68325,0.8811,1.2136
0.4775,0.19867,0.68263,0.31449,0.59388,0.61689,0.53617,0.7092,0.76176,0.66497,-0.01046,0.36905,0.35202,0.34095,0.18381,-0.11306,0.08384,0.25371,0.04833,-0.11689,-0.29475,-0.42292,0.21743,-0.15735,0.48431,-0.27613,0.18618,0.31193,0.35096,0.40131,0.40889,0.48448,0.50092,0.04812,-0.15397,0.10449,0.04601,-0.31293,0.55123,0.50439,-0.25427,0.39059,0.23285,0.39155,-0.19967,0.05207,-0.36728,-0.16382,-0.41333,-0.34091,-0.39955,-0.27657,-0.29207,-0.42743,0.21002,-0.00709,-0.16247,0.08501,0.35592,0.0003,-0.2546,0.50443,0.36664,0.0445,-0.27181,0.17917,0.1117,0.47342,-0.14134,-0.20226,0.25523,0.1321,-0.41286,0.06541,0.9183,0.20865,0.47091,0.03757,-0.02626,0.11381,0.47117,0.6242,-0.3799,-0.41991,-0.40582,0.19079,0.13626,-0.61638,-0.09664,0.35352,-0.12336,0.59248,0.6684,-0.29274,-0.61673,0.25964,0.4629,0.44372,0.15966,0.4055,0.19025,0.6618,0.6455,0.4217,-0.3125,0.3607,0.10582,-0.00817,0.46611,0.46541,0.7929,-0.26538,-0.24223,0.25035,0.7383,0.4177,0.2261,-0.11578,0.07302,1.0689
0.65452,-0.16185,-0.081276,-0.00086,-0.18776,-0.0128,0.18555,-0.23507,0.54856,0.61325,0.19934,0.22609,-0.33309,-0.01237,0.48024,0.4883,0.11819,0.42916,-0.41238,-0.38835,0.42673,0.14563,-0.20648,0.43812,0.12546,0.32239,-0.1268,0.32035,0.39315,0.32554,0.17167,0.35998,0.07861,0.54374,0.42642,-0.45982,0.55831,0.15671,0.07443,0.4375,-0.23285,0.25842,0.49927,0.30715,-0.14216,-0.43791,0.26794,0.26424,0.01244,-0.12612,0.21951,0.32559,-0.45051,-0.35608,0.35484,-0.17024,0.14808,0.19231,0.16819,0.47886,-0.03017,0.47966,-0.21726,0.04685,0.3037,0.10612,-0.16464,0.28914,-0.13119,0.09984,0.53147,0.02598,-0.06144,0.38786,0.05077,-0.22198,0.3811,0.37754,-0.04198,0.14334,0.14537,0.30931,0.17535,0.22399,-0.15233,-0.04737,-0.52938,-0.46837,-0.15226,0.16952,0.7151,0.45274,0.482,-0.13134,0.18309,-0.19851,-0.4354,-0.27642,0.5936,-0.6559,0.24441,0.28794,0.36755,0.6281,-0.11562,-0.23844,0.01769,0.7758,0.07326,0.20718,0.8801,0.7945,0.08321,0.01524,0.02795,0.27027,0.7609,0.00839,0.39509,0.53502
-0.069359,-0.099948,-0.15068,0.33024,0.18811,0.01715,0.76894,0.4143,-0.30549,0.58923,0.15635,-0.1827,-0.09072,-0.11849,0.70984,0.38218,0.4799,0.04229,-0.10687,0.36272,-0.41805,0.16434,0.29095,-0.11904,0.02722,0.28802,-0.44467,-0.38236,0.37704,0.23349,-0.29466,0.56146,0.43903,-0.25785,-0.09589,0.53414,0.30948,-0.36917,-0.12646,0.22615,0.39557,0.47556,-0.19845,0.42692,-0.52548,-0.2035,-0.01936,-0.37163,-0.34143,-0.24663,0.39678,-0.37642,-0.41126,-0.32483,-0.03433,-0.1825,-0.50602,-0.25851,0.47556,-0.33945,0.28106,-0.17407,0.19356,0.19744,-0.19869,0.24947,0.37022,-0.15141,0.41919,0.40054,0.55502,-0.25111,-0.35358,-0.0154,0.1609,-0.15088,-0.19262,0.3295,0.35146,0.0345,-0.4311,0.26888,-0.14568,0.38929,-0.0306,0.34861,0.07513,-0.04307,-0.57781,-0.46751,0.1535,0.30064,-0.1481,0.48414,0.16372,-0.18373,0.10719,0.14729,-0.47343,-0.37097,-0.42987,0.6701,0.42039,0.24069,0.54845,0.59711,0.16016,0.11587,0.55953,0.9121,0.68809,0.36637,0.8567,0.66924,0.21286,0.14432,0.53372,0.7343,0.50506,0.45919
0.00044,0.07334,0.01518,0.5609,0.38428,0.55369,0.17888,0.12296,-0.27415,0.59498,0.2031,0.19946,-0.29566,-0.1592,0.55961,-0.18324,0.12247,0.27771,0.48407,0.38296,-0.3467,0.08098,0.24004,-0.0123,0.07456,-0.12403,-0.03904,-0.06194,0.04546,0.14771,0.00366,0.45884,0.25308,0.27601,-0.16707,-0.10836,-0.19789,0.3804,-0.10304,0.23625,-0.51764,0.00737,-0.1711,-0.24372,0.1634,0.21611,0.28466,0.10258,-0.41012,-0.01513,-0.28624,-0.31195,-0.45468,-0.45597,0.20633,-0.27379,-0.19655,-0.19811,0.00302,-0.02122,0.1129,0.23513,-0.36218,-0.18373,0.10745,0.4161,0.27979,0.7534,-0.10748,0.21979,0.67185,-0.21317,0.23427,-0.0855,0.51712,0.61633,0.38093,0.01249,0.6371,-0.41966,0.2872,0.60752,0.09727,0.16718,0.2976,0.5383,-0.26456,0.0859,0.05221,0.04308,0.03167,0.16884,0.46826,-0.00887,-0.2889,0.39107,-0.28507,-0.35663,0.1658,0.28584,0.25611,0.00418,-0.1224,-0.05111,0.44053,0.25402,0.30615,0.06379,0.31417,0.35086,0.9832,0.06083,0.52667,0.33679,0.26181,0.28879,0.51223,0.49515,0.8336,0.706
0.59403,0.22095,-0.084718,0.36461,0.57432,-0.13025,0.21272,0.25732,-0.12162,0.32763,-0.14851,-0.04839,0.3535,0.07526,-0.36389,-0.3944,0.14798,0.37084,-0.32431,0.46751,0.05547,-0.23022,0.39393,-0.30566,-0.03611,0.42576,-0.29,0.06394,0.42196,0.27267,0.24613,-0.00742,-0.12419,0.4355,0.43405,-0.31199,-0.24848,0.24481,-0.3873,0.10336,0.24882,-0.03735,-0.17109,-0.59725,-0.64436,0.22065,-0.07908,-0.30574,0.0333,-0.07971,-0.60711,-0.13243,0.16018,-0.02302,-0.53291,-0.02738,-0.54068,-0.10317,-0.08087,0.51569,0.17398,0.17629,-0.43787,0.39318,0.42613,-0.43528,0.00262,0.21033,0.23371,0.26587,0.05473,-0.03503,0.39202,0.07342,0.38425,0.44736,0.15382,0.07218,0.32772,0.22603,0.07576,0.26932,0.00388,-0.25515,0.29724,0.25038,-0.20072,-0.35307,-0.16994,-0.38539,0.02602,0.7539,0.01133,0.22161,0.10653,0.00601,-0.46296,-0.20487,-0.50914,-0.40274,0.20913,-0.32669,0.07574,0.39749,0.57171,0.52168,0.42488,0.41038,-0.02156,0.22179,0.56881,0.03513,0.6708,0.34445,0.7675,-0.02547,1.0801,0.9413,0.59654,0.27706
0.5252,0.37904,0.62184,-0.06637,-0.16384,0.26991,0.07276,0.3161,-0.06806,0.27738,-0.10197,0.43763,-0.04164,-0.13471,-0.43634,-0.29873,0.02921,0.17313,0.11241,0.12374,0.04388,-0.49733,0.45053,0.22326,0.18677,-0.43722,0.00723,0.18019,-0.42191,-0.15444,0.07036,-0.04909,0.11008,-0.46622,-0.0849,0.1452,-0.18571,0.22978,-0.15033,0.11834,-0.24255,0.18127,-0.16208,-0.3768,0.01783,0.28666,-0.18851,0.09806,-0.13716,0.14249,0.12531,-0.01652,0.07498,-0.73369,-0.57121,0.30991,0.33043,-0.5806,-0.50834,0.16639,-0.14839,-0.00834,0.03754,0.25294,-0.48922,-0.39466,0.39408,0.547,0.42855,0.23938,-0.23804,-0.08491,0.47665,-0.23081,0.44632,-0.04042,0.13451,0.609,0.3996,-0.1445,-0.21952,-0.18653,0.2709,0.26199,-0.32433,0.19934,0.26485,0.41876,-0.57639,-0.34088,0.36564,0.48565,0.62192,-0.12054,0.03779,-0.02231,-0.34206,-0.22003,-0.70933,0.35779,0.631,-0.13072,-0.30132,0.6712,0.12533,0.19992,0.06149,-0.13809,0.31658,0.62675,0.9161,0.39866,0.9564,0.48181,0.48561,0.60567,0.7834,0.9728,0.766,0.853
-0.10288,0.57173,-0.14586,0.5827,-0.13647,0.19736,-0.06911,-0.23392,0.20982,0.22797,0.03204,0.64722,-0.08805,0.42423,0.06919,0.4398,0.22708,0.39431,-0.42056,0.10894,0.32526,-0.63841,0.23578,-0.0038,0.00826,-0.42926,0.14278,0.02288,0.01961,0.06752,0.14337,-0.11531,-0.17696,-0.09915,0.42683,0.10436,0.13597,0.173,-0.03701,-0.38232,-0.67343,-0.57389,0.0611,-0.00263,-0.20809,-0.1634,0.13654,-0.39792,-0.19471,-0.45845,-0.34085,-0.61968,-0.10837,-0.55385,-0.59591,-0.1609,-0.54957,-0.18721,0.3239,-0.35791,0.23266,0.39517,-0.23709,-0.41918,0.14645,0.32883,0.4612,0.34438,0.00735,0.40584,0.07491,-0.12351,-0.46632,0.32502,-0.1245,0.48508,-0.16225,0.28848,0.15457,-0.22353,0.6929,-0.56636,-0.71126,-0.43502,0.16446,-0.40249,-0.39566,0.08011,-0.34542,-0.36363,-0.45378,-0.20574,0.1624,-0.1546,0.05506,-0.14564,-0.09888,0.22267,-0.01561,-0.66806,0.25803,-0.19025,-0.41442,0.38965,0.7633,-0.11887,0.28076,0.51224,0.5691,0.11391,0.47248,0.35654,0.75226,0.4203,0.02399,-0.00642,0.7861,0.70347,0.6593,0.8326
-0.04705,0.09978,-0.092528,0.27777,0.45608,0.1071,0.1467,0.68295,-0.21668,0.05953,0.1064,0.463,0.25498,-0.09955,-0.31877,0.30044,-0.09495,-0.38084,-0.41591,0.10587,-0.67074,-0.62854,-0.47344,0.15022,-0.24005,0.3521,-0.42676,-0.30204,-0.49167,-0.40388,0.42394,0.20432,0.07885,0.16391,-0.38732,-0.42376,0.29311,-0.27181,-0.67823,-0.73867,-0.45807,0.16782,-0.08944,-0.25675,-0.74503,-0.11721,-0.60249,-0.54978,-0.4233,-0.33053,0.09503,-0.47498,-0.66129,-0.049,0.11797,-0.59415,0.12693,-0.67588,-0.05696,-0.31163,0.28683,0.18458,-0.24809,0.11587,-0.27403,-0.19121,0.24025,-0.29705,0.18887,-0.10255,-0.1887,0.01479,0.05694,0.25547,0.04312,0.34384,0.44053,0.49063,-0.03104,0.13992,-0.06991,-0.17846,-0.51354,0.10613,0.07239,-0.23243,-0.29738,-0.22222,-0.11855,0.21154,0.11762,-0.21039,-0.38758,0.01773,0.6696,-0.15114,0.6347,0.13732,0.37802,0.19769,-0.21839,-0.38542,-0.35562,-0.14094,0.27549,0.6947,-0.16114,0.17937,0.62901,0.12013,0.47137,0.39465,1.0841,0.48355,-0.03927,0.31684,0.13137,1.1416,0.64147,0.74364
0.73799,-0.21527,0.09492,-0.02889,0.31435,0.20216,-0.1606,0.38245,-0.11457,-0.08083,0.06958,0.37784,0.33014,0.28379,0.24339,-0.27287,-0.27987,0.44463,-0.18336,-0.25836,-0.01049,-0.37495,0.28838,-0.54457,-0.41415,-0.14095,-0.22795,0.44949,-0.18604,0.13146,-0.29989,0.45493,-0.0058,0.01635,0.02867,-0.21688,-0.63025,0.31968,-0.57117,-0.16834,-0.27067,-0.46548,-0.70025,-0.63279,-0.1103,-0.21902,-0.58382,-0.16921,-0.65664,-0.74632,-0.73841,-0.77515,-0.93789,-0.80713,-0.62516,-0.63286,-0.25443,-0.05633,-0.40086,-0.61938,-0.56484,-0.0895,0.14878,0.45001,-0.24979,0.18028,-0.06007,0.12475,-0.50771,-0.07907,0.288,0.30991,0.40089,-0.31221,0.50666,0.10594,0.48361,0.27038,0.08704,-0.14773,0.34107,0.5972,-0.47848,-0.25952,0.13071,0.24034,0.23803,0.32856,-0.47216,0.17665,-0.62688,-0.19651,0.29875,0.08334,0.40904,-0.26065,-0.17171,0.50867,0.12845,-0.29062,0.10178,0.05225,-0.30539,0.50819,0.48406,0.48999,0.48614,0.61385,0.45357,0.23594,0.29709,0.34801,0.21908,0.998,0.48073,0.7646,0.9487,0.31104,0.60112,0.15593
-0.16214,-0.05831,0.17242,0.1887,0.70629,-0.04041,-0.041703,-0.21614,0.29859,0.46062,0.39848,0.4248,-0.09962,0.20947,-0.05745,0.1397,-0.17376,-0.03983,-0.47752,0.13346,-0.48948,-0.33417,0.27116,0.45354,0.10797,0.01344,0.06089,0.38815,-0.24003,-0.53927,0.29709,-0.02263,-0.08665,0.24441,0.21314,-0.18356,-0.01907,-0.39472,-0.17976,-0.01024,-0.10145,-0.82201,-0.78014,-0.79073,-0.29406,-0.16863,-0.66107,-0.71972,-0.22506,-0.69754,-0.02148,-0.8473,-0.95599,-0.46836,-0.17755,-0.16052,-0.22658,-0.65536,-0.45436,0.04965,-0.76731,-0.28653,-0.63304,-0.20818,0.21394,0.36731,0.29345,0.38348,0.25269,0.14646,-0.49839,-0.21278,-0.48731,0.19245,-0.1266,0.39571,-0.04604,0.39849,0.31256,0.01671,-0.00594,0.6044,0.04578,-0.76591,-0.40687,0.05693,0.37343,-0.09531,-0.00662,-0.2722,-0.37517,0.07415,0.07514,-0.06837,0.55646,0.38542,0.52224,-0.17733,0.21928,-0.05562,0.43676,-0.17515,-0.0988,-0.14322,0.36353,0.43208,0.38377,-0.16933,0.36072,0.3736,0.57166,0.63878,0.38216,0.58359,0.60868,0.16397,0.8738,0.72863,0.8032,0.5102
0.6262,0.11222,0.51514,0.58214,0.43312,-0.099507,-0.03679,-0.39545,-0.1023,0.24193,0.20804,0.47572,0.51514,0.30701,0.40321,-0.3677,0.29972,-0.05576,0.22482,0.14983,0.11449,0.39846,-0.15644,0.4122,0.36518,-0.37824,-0.30021,-0.21937,-0.42853,-0.27848,-0.48829,-0.25574,0.34963,0.31953,-0.09794,-0.17629,0.10849,-0.08864,-0.82511,0.04717,-0.10752,-0.68265,-0.16524,-0.07229,-0.9644,-0.06967,-0.44909,-0.46208,-0.14784,-0.09054,-0.60824,-0.2712,-0.79646,-0.15411,-0.63725,-0.81323,-0.79478,-0.26309,-0.36171,-0.4708,-0.80757,-0.55947,-0.55205,-0.20219,0.19219,0.28834,-0.11338,-0.0749,-0.23618,-0.09697,-0.07391,-0.37638,-0.04625,-0.12945,0.41145,-0.05712,0.43838,-0.08842,0.39238,0.51298,0.43665,0.17441,0.24536,0.32187,-0.00879,0.14523,0.62487,0.19277,-0.40577,0.43369,-0.45414,-0.42892,0.28683,-0.06535,0.00304,-0.12968,0.53238,0.55464,0.41332,0.30838,0.01016,0.23063,0.17301,0.5674,0.57096,0.04389,0.30392,0.7536,0.22773,0.21905,0.11915,0.6145,0.13788,0.34369,0.8882,1.0128,0.03763,0.14102,0.48782,-0.01878
0.1797,0.43114,0.30264,0.23867,0.58885,-0.095449,0.06251,0.14092,0.52978,0.50544,-0.2373,0.36337,-0.14699,-0.2567,-0.14937,-0.24166,-0.14483,0.51516,0.55331,0.37796,0.35224,0.48253,-0.24163,-0.09377,0.24333,0.142,-0.51038,0.24363,-0.33442,0.18395,-0.59188,-0.51907,-0.1027,-0.50475,0.21527,-0.45979,-0.47928,-0.71671,0.09088,-0.7176,-0.8781,-0.3039,-0.66312,-0.35652,-0.21395,-0.62795,-0.37942,-0.7757,-1.0974,-0.36648,-1.0412,-0.21094,-0.11844,-0.20016,-1.0269,-0.52255,-0.41754,-0.86997,-0.20612,-0.29321,-0.42456,-0.76784,-0.20876,-0.2077,0.29678,-0.1303,0.16874,0.60544,-0.0329,0.05413,0.39142,0.04324,-0.42025,-0.05411,-0.03528,0.09549,0.34899,0.03726,-0.23761,-0.36931,0.03441,0.22135,0.37575,0.39619,0.03237,-0.53006,0.20388,0.13102,-0.14441,0.22009,-0.19709,-0.69011,-0.29281,0.1122,0.02704,-0.06922,0.1915,0.22774,-0.20355,-0.38611,0.7037,0.44489,0.16128,-0.46035,0.23492,0.66598,0.57274,0.15398,0.34845,-0.40606,-0.06014,0.61057,1.0433,0.8404,0.75394,0.5512,0.73913,0.26985,0.8289,0.77549
0.4491,0.03183,-0.18997,0.34568,0.24895,0.49459,0.04622,0.06495,-0.14458,0.2675,0.18787,0.07455,0.52438,0.49641,0.5814,0.2179,0.46079,0.40648,-0.10812,0.04131,0.55925,-0.12228,0.38531,0.09229,-0.02479,0.32248,0.19024,-0.14907,-0.29515,-0.51018,-0.00024,-0.00558,-0.07052,-0.57373,0.24742,-0.40125,0.10772,-0.82084,-0.85735,-0.86124,-0.49383,-0.11298,-0.39348,-0.58755,-0.10474,-0.1062,-0.88519,-0.22995,-0.75337,-0.63552,-0.18979,-0.49916,-1.1296,-0.24798,-0.56047,-0.5484,-0.15963,-0.27685,-0.4675,-0.96699,-0.18008,-0.87594,-0.17828,-0.14364,-0.14425,-0.0548,0.13456,-0.32214,0.14369,-0.14856,-0.25345,0.39716,-0.20512,-0.50853,0.11495,0.00965,0.45907,-0.14097,0.47674,0.23116,0.10854,-0.14625,0.5603,-0.27124,0.06525,0.05533,-0.73339,-0.14911,0.21663,-0.36791,0.54162,0.08405,-0.06365,-0.22467,-0.40893,-0.04964,0.29383,0.6569,-0.17784,0.51864,0.56527,0.39343,0.5037,-0.29042,0.25923,0.04818,0.29751,0.23152,0.17389,-0.25965,0.27399,-0.30422,0.01248,0.9245,0.8382,0.34852,0.11591,0.21285,1.1666,0.07002
0.21033,0.69381,0.62081,0.63741,-0.099646,0.24847,0.37749,-0.23628,-0.01777,0.3123,0.61465,-0.03391,-0.01177,0.51776,0.59008,0.27293,-0.05845,-0.35744,-0.10373,-0.19714,0.00323,0.19581,-0.07775,-0.2851,-0.2467,-0.14717,-0.23213,-0.00237,-0.21768,-0.53387,-0.56037,-0.58261,-0.0949,-0.45388,-0.33277,0.18211,-0.34166,-0.69551,-0.34474,-0.85604,-0.45613,-0.69375,-0.5903,-0.96876,-0.22353,-0.89043,-0.58379,-0.56397,-0.90801,-0.77089,-1.0862,-0.92855,-0.63413,-1.1479,-0.71051,-1.1771,-0.59852,-0.91392,-0.46953,-0.97861,-1.1168,-0.28998,-0.23255,-0.35975,-0.49347,-0.38549,-0.26907,0.0591,0.56115,0.04283,0.29158,0.21932,0.30952,0.03233,0.20996,-0.26468,0.34327,0.07924,0.34867,0.25383,0.27125,0.27572,-0.08172,-0.2273,-0.10822,-0.67989,-0.3324,-0.115,-0.48546,0.13977,0.2275,0.24766,-0.37057,0.1459,0.26565,0.45796,0.18334,0.10864,-0.0032,0.2432,0.16641,-0.10797,0.59204,-0.14283,-0.08689,0.48563,0.13765,0.48381,0.33479,0.15533,0.39968,0.34226,-0.01147,0.9315,0.56197,0.8386,0.26805,0.36252,0.7793,0.10035
-0.021,0.46317,-0.01301,0.37706,0.57947,0.52022,-0.37154,-0.29082,-0.17524,0.22935,0.30707,-0.1607,-0.11899,0.16935,0.11699,0.68458,0.17876,0.49794,0.41061,0.19525,0.04444,-0.23134,0.29571,-0.12573,0.15892,0.19044,-0.53837,-0.06079,-0.41372,0.17924,-0.31281,0.1354,0.09329,0.04018,-0.58038,-0.27333,-0.36392,-0.12277,-0.70552,-0.77693,-0.64891,-0.52346,-0.13416,-0.69132,-0.13187,-1.0167,-0.27851,-1.06,-0.37854,-0.91513,-0.57447,-1.2584,-0.46877,-0.64204,-0.63055,-1.0129,-0.75369,-0.99154,-0.79561,-0.86982,-1.2596,-0.56521,-0.34998,-0.39404,-0.79361,-0.54301,-0.18503,0.37039,0.2365,-0.0816,0.23561,0.06594,0.65057,0.1487,0.35539,-0.02153,0.22791,-0.19224,0.49085,-0.24733,-0.05069,0.0094,0.22869,-0.28098,0.42021,-0.65248,-0.28419,-0.47093,-0.20761,0.2474,-0.40899,-0.17722,0.44496,0.25719,0.44696,-0.01922,0.35233,0.8479,0.38867,0.15259,0.39327,-0.1608,0.31019,0.26701,0.18581,0.5392,0.02654,0.68766,0.10499,-0.29551,0.29771,0.51092,0.63017,1,0.50738,0.4773,0.84713,0.69592,0.9502,0.65461
0.13585,0.35449,-0.03853,0.58133,0.42741,0.28968,-0.35524,0.09661,0.41455,0.62587,0.01376,0.14136,0.51232,0.49446,0.09848,0.19868,-0.17069,0.19165,0.53844,0.20363,-0.09831,-0.00997,-0.05967,-0.28926,0.35553,-0.14641,-0.59859,-0.47862,-0.25261,-0.55401,-0.18718,-0.38406,-0.47178,-0.04213,-0.24586,-7e-05,0.07474,-0.13005,-0.57424,-0.14882,-0.68709,-0.76346,-0.53164,-0.28648,-0.77281,-0.58582,-0.84658,-1.2046,-0.45331,-1.1109,-0.59447,-0.39767,-0.73502,-0.92036,-0.48436,-0.49441,-0.50934,-0.40815,-0.68653,-0.86209,-0.48406,-0.57284,-0.33602,-0.78516,-0.19643,-0.70355,0.07822,0.20536,0.24347,-0.23947,0.05321,-0.12368,0.42266,0.20193,0.8124,0.7916,0.6248,-0.49625,0.40864,0.27352,0.11209,0.7506,0.22963,0.41976,-0.45874,0.01664,-0.12793,-0.57348,0.11728,0.06581,-0.20034,-0.10725,0.29373,0.0186,0.53712,-0.07749,0.07597,0.53517,-0.09836,-0.02316,0.58896,0.56335,-0.09976,0.5549,-0.23849,0.19642,0.36535,-0.20658,-0.10472,-0.2026,-0.32605,0.54355,0.13443,0.12692,0.56201,0.53496,0.77788,1.0969,0.75041,0.07744
0.75942,0.51125,0.39401,-0.26976,-0.15572,0.296,-0.32296,0.53015,0.09155,-0.05102,0.33869,0.6107,0.03645,0.00618,-0.22333,0.01546,0.3452,0.60458,-0.19362,-0.16661,0.32505,-0.01923,0.14744,-0.1399,0.05818,-0.03957,-0.41764,0.08884,-0.57299,-0.3791,-0.7378,-0.12634,-0.20126,-0.46599,-0.35564,-0.17827,-0.51036,-0.00285,-0.5493,-0.17999,-0.67603,-0.36411,-1.0129,-0.42852,-0.97206,-0.90635,-0.99198,-0.33895,-0.31033,-0.70375,-1.0791,-1.1762,-0.50905,-0.86018,-1.1171,-0.77764,-1.1298,-0.91524,-1.2458,-0.89452,-0.5433,-0.68688,-1.1425,-1.0327,-0.86098,-0.84586,-0.86048,-0.39195,0.04546,-0.4287,0.18685,-0.17322,0.16672,0.8866,0.8917,0.30801,0.7953,0.44456,0.4203,-0.16703,0.45867,-0.05241,0.59309,-0.30663,0.5578,0.23162,-0.20465,-0.66465,-0.56136,-0.18184,-0.17373,0.07353,0.61305,-0.1486,0.12851,0.46937,0.21389,0.33451,0.13435,-0.3816,0.46029,0.09096,0.1227,0.44183,-0.11632,0.57493,0.24856,0.21967,-0.0142,0.52627,-0.3607,0.33569,-0.13295,0.69433,0.28561,0.8875,0.72496,0.46544,1.1614,0.8991
-0.15038,0.50784,0.07044,0.60504,-0.22792,0.5313,0.49906,0.36987,0.29316,0.69349,0.70334,0.03556,0.10714,0.27588,0.15843,0.55681,0.71944,0.69431,0.60051,-0.20811,0.00954,-0.1851,-0.32613,0.11532,-0.02259,-0.07416,-0.14148,-0.28891,-0.13859,0.0054,-0.4867,-0.51679,-0.24888,-0.04313,0.03273,-0.14987,-0.11008,-0.06855,-0.23997,-0.54393,-0.1529,-0.97655,-0.4569,-0.34204,-1.0219,-0.48889,-0.78344,-1.2447,-0.69466,-0.89822,-1.0245,-0.54759,-0.44339,-0.85611,-0.39059,-0.49957,-0.9749,-0.91689,-1.0315,-0.96962,-0.47419,-0.96871,-1.2556,-0.66629,-0.86075,-0.50681,-0.61435,-0.75749,-0.7444,-0.87817,-0.69046,-0.59994,0.55084,0.8652,0.5731,1.1106,1.077,0.38974,0.23738,0.3461,0.48996,0.25351,-0.19153,-0.16404,0.31581,-0.0662,0.10293,-0.34125,-0.34383,-0.28694,-0.14835,0.42964,-0.21853,-0.17749,-0.20812,0.2192,-0.01416,0.48158,0.59755,-0.22504,0.8229,0.47168,0.8022,-0.03514,0.43708,0.07811,-0.27454,0.41759,0.2948,0.45484,0.15166,0.10001,0.35123,0.22808,0.8286,0.2058,0.48191,0.8598,0.52745,1.0679
0.11128,0.38595,-0.052042,0.08065,0.44041,-0.1019,0.38258,-0.19714,0.64785,0.11192,-0.12068,0.24983,-0.03107,0.81606,0.29823,0.16613,-0.12251,0.46112,-0.072314,-0.17177,0.23689,-0.07494,0.18154,0.57231,0.03506,-0.09593,0.08287,0.14566,-0.31588,-0.47158,-0.6624,-0.69963,-0.60228,-0.74034,-0.8334,0.09825,-0.38431,0.03933,0.00545,-0.05005,-0.62181,-0.64192,-0.826,-0.27784,-0.8289,-0.25296,-0.53064,-0.75954,-0.67946,-1.1936,-1.1524,-0.36426,-0.60003,-0.42262,-0.57981,-0.87205,-1.249,-0.72312,-1.2708,-0.85162,-0.66088,-1.0879,-1.0711,-0.99534,-1.2893,-1.1961,-0.40936,-0.9605,-0.26134,-0.84929,-0.17284,-0.58503,-0.54651,0.39932,0.24688,0.19076,1.0063,1.2206,0.7186,0.51767,0.41503,0.37007,0.40794,0.5087,-0.09005,-0.50036,-0.02603,-0.06881,-0.65173,-0.2987,-0.54827,-0.38661,0.51196,0.06724,0.3941,0.36237,-0.39064,-0.08508,0.11609,0.08878,0.44844,0.15548,0.15543,0.22111,-0.08669,-0.08489,-0.20566,-0.33295,-0.19634,-0.0425,-0.4187,0.17711,-0.00901,-0.02083,0.72276,0.02596,0.66846,0.8124,0.38295,0.63021
0.30948,0.51836,0.03132,-0.12254,0.41545,0.45736,0.42964,-0.24588,0.5048,0.33245,0.08128,0.02873,0.49546,0.0854,0.56028,-0.11069,-0.030521,0.71767,0.26059,0.71858,0.09868,0.43731,0.06978,0.39829,0.29384,-0.27079,0.22512,-0.05077,-0.52767,-0.36233,-0.3565,0.03437,-0.66326,-0.07857,0.0418,-0.48459,-0.13004,-0.7767,-0.49662,-0.96386,-0.32347,-0.73287,-0.16944,-1.0704,-0.90469,-0.47467,-1.1854,-0.70666,-0.33691,-0.57517,-0.81839,-0.83309,-1.0406,-0.86145,-0.52759,-0.5885,-0.88302,-0.65533,-0.77605,-0.53044,-0.51465,-0.49645,-1.1752,-0.64878,-1.3642,-0.70221,-0.79987,-0.6451,-1.2479,-0.9798,-1.1219,0.09164,0.10475,-0.19599,0.02294,0.7449,0.9033,0.62691,0.26231,0.44721,0.12651,0.6762,-0.18023,-0.38444,-0.2579,-0.0832,0.14338,-0.22249,-0.00644,-0.62853,0.29568,-0.40121,-0.24699,-0.21844,0.30912,0.25419,-0.51912,0.47732,0.6479,0.26225,0.71279,0.46638,0.7084,0.54171,0.54306,0.3695,-0.06796,0.755,0.3999,0.34348,-0.36317,0.48065,0.34707,-0.00116,0.8275,0.07837,0.8531,1.0029,0.32746,0.9233
0.45612,0.67947,-0.1429,0.45279,0.39988,-0.0818,0.47404,0.70629,0.23406,0.52229,0.0327,0.18408,-0.12512,-0.01587,-0.12432,0.01183,0.42255,0.37576,-0.01013,0.0639,0.03869,0.18344,0.24076,0.57392,0.16196,-0.00441,-0.38693,-0.57531,0.0445,0.05003,-0.2101,-0.77677,-0.33707,-0.43062,-0.7719,-0.61134,-0.42282,-0.8601,-0.46662,-0.87607,-0.71516,-0.56945,-0.93192,-1.1521,-0.42735,-0.65977,-0.31726,-0.84829,-0.61222,-0.84173,-0.31743,-0.92899,-0.51148,-1.0207,-1.1359,-1.2901,-0.52922,-0.86051,-0.86544,-1.2169,-0.8067,-1.432,-1.2555,-0.63622,-1.2856,-0.43281,-0.39851,-0.84071,-1.3252,-1.0727,-0.61937,-0.19373,-0.19738,-0.38695,0.5677,0.48367,0.12151,0.15682,0.45047,0.25967,0.39121,0.04761,0.60236,0.1463,0.16412,-0.56566,-0.02277,-0.1889,-0.23497,-0.44088,-0.42606,-0.2406,0.5821,0.7222,0.30577,0.55474,0.44132,0.46938,-0.15135,0.58543,0.43121,0.47668,0.70976,0.75015,0.8884,-0.02039,0.36426,0.50124,0.34045,-0.49863,0.35363,-0.04979,0.57849,0.8409,0.47003,0.58623,0.68077,0.8945,0.80484,0.64636
0.47225,0.31009,0.32433,-0.18153,0.53205,0.19646,0.59293,0.61731,0.65028,0.60396,-0.071764,-0.04143,0.13589,0.68189,0.60229,0.24566,0.14228,-0.011287,0.72441,0.50003,0.44821,0.14817,0.45999,-0.19177,-0.37388,0.47141,-0.14379,-0.04601,-0.22824,-0.72023,-0.6493,-0.19239,-0.41549,-0.71235,-0.50279,-0.67889,-0.1521,-0.12052,-0.48758,-0.10394,-0.24804,-0.31848,-0.63301,-0.5251,-0.54805,-0.36253,-0.68897,-0.73642,-0.67305,-0.27806,-1.1138,-0.80229,-0.36479,-0.45897,-0.91676,-1.0715,-0.83954,-0.75209,-1.0587,-1.5017,-1.0886,-0.54259,-1.0656,-0.89291,-0.87871,-0.65171,-1.0368,-1.3925,-1.5264,-1.4739,-0.39196,-0.97809,0.12224,-0.361,-0.00979,-0.18845,0.9289,0.64338,0.9757,0.9264,0.7708,0.55489,0.19082,0.37888,-0.08272,-0.51896,0.3136,0.38418,-0.25304,-0.18391,-0.35049,-0.33074,-0.48502,-0.30071,-0.10381,-0.23522,0.7689,-0.28451,0.7306,0.48657,0.15406,0.7836,0.12441,0.66422,0.45276,-0.15467,0.2056,0.19758,0.03267,-0.38543,-0.43826,0.6646,0.25837,0.65335,0.16859,-0.05378,0.05492,0.8975,0.55911,0.69062
0.34729,-0.10039,-0.03646,-0.20586,0.43903,0.30196,0.40639,0.17906,0.61331,0.47,-0.081131,0.63348,-7.8e-05,0.88266,0.10476,0.3197,0.24883,0.47376,0.78727,0.54473,0.12751,0.37275,-0.14794,0.52284,0.01833,0.17693,-0.40012,-0.59003,-0.59822,-0.68252,-0.39034,-0.7728,-0.91678,-0.12665,-0.70108,-0.18005,-0.14079,-0.37349,-0.50361,-1.0414,-0.25416,-0.64317,-0.63848,-0.70045,-0.91346,-0.83286,-0.63076,-0.38826,-0.45833,-1.0236,-0.74879,-1.1032,-0.79682,-0.69775,-1.0972,-1.3355,-0.55003,-0.87304,-0.9691,-0.57518,-0.89461,-0.82282,-0.91779,-1.0307,-1.3547,-1.2159,-0.84201,-1.0632,-1.5208,-1.0061,-0.87444,-1.1052,0.06251,-0.72258,-0.53609,0.22072,0.05853,0.06941,0.58318,0.7384,0.23487,0.09435,0.06611,0.53943,1.0889,0.52979,-0.22585,0.46787,0.38701,-0.02488,0.28308,-0.12789,-0.27904,0.29971,0.12714,0.1885,0.7278,0.05763,-0.13003,0.37284,-0.26996,0.69951,0.73073,0.15151,0.34598,0.8723,0.48796,0.7802,0.46535,0.05078,-0.10283,0.36965,-0.09388,0.51215,0.3566,-0.1081,0.62939,0.30633,0.33299,0.73716
-0.25426,0.37084,0.48623,-0.17811,-0.18407,-0.02535,0.60499,0.34848,0.60532,0.74881,0.51893,0.7249,0.7883,0.20303,0.224,0.89284,0.81641,0.81638,0.74581,0.48454,0.77034,0.66285,0.54511,0.5319,-0.00126,0.49647,-0.43532,-0.61071,0.12307,-0.21477,-0.51566,-0.06605,-0.12264,-0.90742,-0.53296,-0.19936,-0.95152,-0.62694,-1.0674,-0.6615,-0.85199,-0.98978,-0.31634,-0.67513,-0.72876,-0.63862,-0.41494,-0.5472,-0.5155,-0.52928,-0.91514,-0.77406,-0.40981,-0.81965,-0.77435,-0.50557,-0.62486,-0.58151,-0.65231,-1.3962,-0.61085,-0.98598,-0.99937,-1.6365,-0.57522,-0.88101,-1.3914,-1.5774,-1.4181,-1.3208,-0.49124,-0.82569,-0.70674,-0.66146,-0.71394,-0.52026,-0.31694,0.3023,0.16702,0.16172,0.21771,0.73071,0.42733,0.45875,0.9954,0.27431,-0.1405,-0.14139,0.25677,-0.42029,-0.38888,0.06099,-0.22356,0.40528,-0.3207,0.57746,0.02146,0.25532,0.20593,0.65594,0.3416,0.40342,0.8437,0.9689,0.73081,0.59929,0.30578,0.08799,0.47939,-0.07792,-0.2097,-0.08858,0.2351,0.75195,0.74879,-0.17744,0.909,0.8344,1.0189,0.61327
0.03107,-0.14009,0.22405,-0.2801,-0.26298,0.18028,0.10493,0.12112,0.16844,0.30975,0.75761,0.57361,0.05658,0.74058,0.13643,0.79486,0.77797,-0.073845,0.51316,0.55784,0.12246,0.2033,0.39387,0.51669,0.48054,0.33258,0.20427,-0.6415,-0.16885,0.05335,-0.64202,-0.5502,-0.66815,-0.63699,-0.086,-0.85617,-0.82174,-0.58872,-0.61525,-1.0273,-0.7756,-0.32482,-0.69738,-0.50618,-0.81098,-0.31836,-0.54296,-0.60458,-0.65087,-0.95037,-0.9689,-1.1733,-0.93916,-0.64722,-0.54982,-0.96888,-1.0269,-0.71009,-0.68234,-0.65082,-0.9963,-1.1252,-0.82889,-1.2635,-1.282,-1.0329,-1.1682,-0.76599,-1.3583,-1.0324,-0.93649,-0.93782,-0.98165,-0.36425,-0.10486,-0.50709,-0.55509,-0.11935,-0.29793,0.09908,-0.13449,0.59297,0.31122,0.72,-0.3442,0.6813,0.25497,0.28983,0.34264,-0.28065,-0.53456,0.16459,0.17379,0.0191,0.39171,0.10405,0.01044,0.15677,0.02639,0.12314,0.13406,-0.14909,1.1446,1.2365,0.21839,-0.00287,0.04127,0.77992,0.67874,-0.09799,0.58098,-0.13191,0.7877,0.71656,0.52415,0.51717,0.57161,0.37503,0.9946,1.2897
-0.14324,-0.2329,0.03744,-0.13692,0.06646,0.39203,0.08888,0.0512,0.61024,0.37021,-0.032015,0.23359,0.43517,-0.07698,0.50322,0.40907,0.3045,0.52679,0.03914,-0.05722,0.74838,0.49607,-0.14678,0.08528,0.09438,0.27222,-0.23571,-0.26427,-0.50961,-0.17738,0.06521,-0.16743,-0.39467,-0.85115,-0.18129,-0.72954,-0.81191,-0.87303,-0.73454,-1.0053,-0.7101,-0.48327,-0.53445,-1.1792,-0.73907,-0.89285,-0.96952,-0.14149,-0.24275,-0.44656,-0.36461,-0.64098,-0.81208,-1.0789,-0.78252,-0.94674,-1.1409,-0.56995,-1.1364,-1.2089,-1.1143,-1.045,-1.4735,-1.5277,-1.1264,-0.50346,-0.77661,-0.59667,-1.0705,-0.78191,-0.70096,-0.78066,-1.2242,-0.83008,-1.0667,-0.68478,-0.22263,-0.50994,-0.65784,0.00154,0.0982,-0.23935,-0.30017,0.38958,-0.15658,0.22755,0.61437,0.12401,-0.2619,-0.05935,-0.10171,0.48278,-0.06664,-0.06563,0.49715,-0.04686,0.35753,0.7154,-0.17772,0.13981,0.53506,0.29229,0.17004,0.72213,0.14911,0.64396,0.3659,0.05709,0.19909,0.55751,0.27528,0.59565,-0.12812,-0.00543,0.47938,0.15857,0.00245,0.35712,1.4504,0.71303
0.12286,0.26247,0.50991,0.2216,-0.17239,-0.085866,0.85295,0.67638,-0.091118,0.15407,0.33221,0.4535,0.79532,0.10023,0.20473,0.58492,0.55573,0.21732,0.14097,0.35662,0.8712,0.76831,0.2736,0.68628,0.28433,-0.04541,-0.10717,-0.10188,-0.09979,-0.6572,-0.03881,-0.17765,-0.31556,-0.1111,-0.35053,-0.43508,0.07663,-0.0836,-0.04393,-0.00235,-0.56521,-0.449,-0.86717,-0.59687,-0.9699,-0.76791,-0.58106,-0.92344,-0.27572,-0.45927,-0.74034,-0.99404,-0.8525,-0.9145,-0.70371,-1.2443,-0.46759,-1.3525,-0.77704,-1.4194,-0.81885,-0.87529,-0.81786,-0.65195,-1.0083,-1.2443,-0.96606,-0.71966,-0.52046,-0.48985,-0.92245,-0.39671,-1.2285,-1.0942,-0.67208,-0.66835,-0.81038,-1.3121,-0.70439,-0.65436,0.07777,-0.49953,0.45879,0.10423,0.61785,-0.31484,0.32277,0.58392,0.58587,0.05355,-0.2219,-0.25649,-0.07851,0.39705,0.00545,0.63778,-0.2332,0.57581,0.8337,0.33595,0.68542,0.5264,0.51275,0.9612,-0.02996,0.5666,0.0203,0.21917,0.53596,0.07964,0.23963,0.8228,0.8643,0.17191,0.4077,0.70042,0.72009,0.8748,0.50051,1.3529
0.30802,0.46235,0.7162,-0.099754,0.33177,0.48938,0.1174,0.006433,0.12327,0.45905,0.84276,0.27222,0.06327,0.61414,-0.038384,0.08904,0.82297,0.40292,0.81578,0.8206,0.43689,0.66836,0.02558,0.19103,0.45408,-0.07995,0.32543,-0.18041,0.54789,0.3974,0.5707,0.36051,-0.00664,0.40493,0.24348,-0.46021,-0.38589,0.03947,-0.25915,-0.1305,-0.27029,-0.30006,-0.98349,-0.43463,-1.0556,-0.75799,-0.29805,-0.54725,-0.8553,-0.71526,-0.76678,-1.1186,-1.0608,-0.7985,-0.98367,-1.3889,-0.60379,-0.63233,-0.69125,-0.75166,-1.4004,-1.0204,-0.83083,-0.8263,-0.58714,-1.0033,-0.48135,-0.30957,-0.35273,-0.33787,-0.42628,-0.99907,-0.47475,-0.65225,-1.1766,-1.0227,-1.1429,-1.28,-1.3066,-0.61046,-0.85512,0.35534,-0.36506,0.3526,-0.26252,0.55015,-0.12675,-0.28501,-0.12146,-0.19051,-0.46686,0.62271,0.50846,0.52856,0.7341,0.25486,0.05043,-0.18338,0.59871,0.0782,0.50902,0.54845,0.54887,0.9358,0.78756,0.63871,0.44772,0.2926,0.38978,0.45457,0.65228,0.65594,0.35444,0.9108,-0.06271,0.25262,0.8667,0.59173,0.40103,0.9707
0.15198,-0.02344,0.44152,0.74045,0.54496,0.34819,0.82964,0.32665,0.58278,0.77589,0.33818,0.89503,0.29129,0.44836,0.02346,0.15257,0.11814,0.36166,0.23926,0.00443,0.59051,0.07901,0.37393,0.7998,0.68104,0.74204,0.20065,0.27145,0.29893,0.43544,0.30294,0.59011,0.06396,0.13575,-0.31052,-0.27328,0.33155,-0.04474,-0.30571,-0.8627,-0.15462,-0.86829,-0.77332,-1.1081,-0.45535,-0.43119,-0.64871,-0.78363,-0.45398,-1.029,-0.50025,-1.1102,-1.0528,-0.369,-1.2233,-1.3579,-0.77073,-0.41724,-1.1481,-0.95642,-0.73029,-1.1379,-0.73847,-0.5437,-0.4375,-0.92676,-1.1332,-0.5732,-0.96761,-0.75006,-0.80175,-1.1715,-1.2657,-1.4513,-0.89767,-1.1375,-1.1375,-1.1056,-0.79513,-1.1246,-0.87676,0.11893,-0.59396,-0.31172,-0.27843,-0.13957,0.5376,0.33514,0.30755,-0.13238,-0.37666,0.17318,0.03129,0.20186,0.40737,0.60541,0.28783,0.63098,-0.0524,0.09905,-0.00043,0.19396,1.1301,0.64891,0.42992,0.43738,0.09229,0.35158,0.7042,0.02794,0.39012,0.13705,0.3983,0.8767,-0.08799,0.35335,0.36868,1.0222,1.1896,0.68118
0.25185,0.1745,-0.04722,0.41183,0.4145,0.8986,0.41904,0.70966,0.26516,0.80711,0.76663,0.72148,0.23538,0.14466,0.56989,0.78571,0.59303,0.48971,0.39671,0.03729,0.1171,0.52299,0.9472,0.09616,0.64803,0.82263,0.41094,0.71851,-0.18599,0.48765,0.10844,0.18073,0.82044,0.8683,0.80658,0.33078,0.78255,-0.02648,0.57043,-0.06921,-0.37521,-0.00938,-0.34359,-0.45371,-0.90757,-0.63273,-0.95109,-0.61808,-0.57848,-1.0082,-1.1126,-0.65614,-0.76658,-0.97923,-0.52564,-0.38427,-1.2175,-0.56509,-1.0242,-0.3392,-0.48262,-1.1723,-1.1238,-0.64238,-0.44397,-1.0614,-0.77417,-1.2221,-0.90584,-0.78052,-0.51269,-1.3979,-1.2603,-1.2872,-1.2926,-0.53909,-0.5726,-0.78192,-0.60351,-0.3771,-1.228,-1.0224,-0.0113,-0.65464,-0.33297,-0.2495,-0.27345,0.7494,0.55888,0.8498,0.9274,-0.24935,0.16792,0.3575,0.41246,-0.32006,0.49886,0.6795,0.17311,0.8932,0.6012,0.7487,0.77837,0.73169,0.56137,0.52686,0.12899,0.61635,0.71359,0.62576,0.42718,0.8577,0.48094,0.8501,0.31557,0.70064,0.33637,0.6929,0.52724,0.8413
0.51092,-0.0212,0.17293,0.9943,1.1634,0.70946,0.73996,0.46017,1.0553,0.65941,0.38714,0.3876,0.32149,0.67499,0.14306,0.57203,0.55046,0.74953,0.9265,0.19125,0.9336,0.73022,0.11536,0.9462,0.9694,0.9193,0.41109,0.14584,0.47555,0.58445,0.43718,0.52046,0.69402,0.25378,0.81179,0.57889,0.24458,0.73368,0.77589,0.40421,-0.12726,0.54871,0.14112,-0.26335,-0.49335,-0.01535,-0.03562,-0.46578,-0.19009,-0.46344,-0.31413,-0.78041,-0.71247,-0.89983,-1.0693,-0.40776,-0.34713,-1.2484,-0.67804,-0.68191,-1.2113,-0.90408,-0.55198,-0.67022,-0.43592,-1.0102,-0.60277,-0.68138,-0.93765,-0.49643,-1.2426,-1.0434,-0.67496,-0.54389,-0.76487,-1.2822,-0.87017,-0.99941,-1.2859,-0.76748,-1.0901,-0.63426,-0.40977,-0.57931,-0.28323,0.10161,0.41136,0.7984,0.0012,0.47948,0.73248,0.7897,0.32925,0.8509,0.8451,-0.40376,0.23721,0.62149,0.61063,0.02482,0.74308,0.23923,0.6047,0.8618,0.61165,0.24423,0.58821,0.60201,-0.1714,0.07869,0.66195,0.20881,0.38528,0.80145,0.58737,0.68634,0.46209,0.8302,0.8693,0.8128
0.16141,0.55795,0.20483,0.39797,1.0109,0.9151,0.32487,0.72632,0.71691,0.9936,0.84684,1.1329,1.0842,0.5349,0.17012,0.46118,0.8993,0.45686,0.21738,0.81534,0.61507,0.56767,1.0651,0.62741,0.2378,-0.12436,0.5911,0.50202,0.13956,0.20771,0.4301,0.73703,0.28267,0.56371,0.21992,0.41735,0.72473,0.64305,0.81745,1.0415,0.57895,0.39433,0.59296,0.34837,-0.18602,0.13625,0.02653,-0.50714,-0.89731,-0.66394,-0.96834,-0.72755,-0.46939,-0.64297,-0.69989,-0.94256,-0.6683,-0.48359,-0.31497,-1.1634,-1.1475,-0.27631,-0.86377,-0.99634,-1.0325,-0.31466,-0.50026,-0.65062,-1.2086,-0.9974,-0.69157,-0.61716,-0.9497,-0.88274,-0.82822,-0.6638,-0.59915,-0.93109,-1.1832,-0.59787,-1.1211,-0.43493,-0.2971,-0.03283,-0.18387,-0.06194,0.23551,0.38211,0.47351,0.31648,0.1262,1.1963,0.52443,0.5642,0.9646,0.9728,0.8406,0.21509,0.9711,0.50983,1.1849,0.34824,1.1356,1.1174,0.69452,0.05519,0.22778,0.8631,0.2062,0.19011,0.0705,0.27847,0.25466,0.25359,0.36342,0.52285,0.33937,1.0205,1.0322,1.1936
-0.10074,0.11892,0.9239,0.24892,0.72151,0.70912,0.36373,1.3435,1.2854,1.1789,0.46637,0.52047,1.132,0.46776,0.71175,0.35475,0.21424,0.46242,0.26799,0.03037,0.3257,0.44498,0.9617,0.26869,0.09014,0.29316,0.21154,0.7329,0.44263,0.8945,-0.12864,0.46976,-0.09005,0.3351,0.851,0.0026,0.35339,0.19287,0.31371,1.1056,0.967,0.40054,0.55717,0.53918,-0.12856,-0.21588,0.36034,0.15436,-0.38531,0.02417,-0.9647,-0.85165,-0.33445,-0.57926,-0.81691,-1.2033,-0.71515,-0.64345,-0.30295,-0.8289,-1.0308,-1.0981,-0.79446,-0.55703,-1.0203,-0.54454,-0.77462,-0.65027,-1.0786,-0.29945,-0.14364,-0.64713,-0.97946,-0.99801,-1.0505,-0.64013,-0.84681,-0.97639,-1.0029,-1.1039,-0.9285,-0.95881,-0.43928,-0.17504,0.40905,0.26164,0.0013,0.55956,0.71353,0.9198,0.36672,0.7991,0.68132,1.319,0.19291,0.8503,1.3748,0.7719,0.21455,0.789,0.65263,0.30211,1.2745,1.4049,0.50568,0.66697,0.16887,0.48057,0.04245,0.39722,0.12579,0.44685,0.907,0.78795,0.00514,0.45156,1.1137,0.78354,1.1672,0.818
0.6489,0.6362,0.84698,0.89004,0.2682,1.0576,1.2995,1.1988,1.2636,1.029,1.0802,0.85354,0.59438,0.9778,0.8931,0.19118,0.26189,0.78093,0.70945,0.0908,0.32387,0.58178,-0.1372,0.34089,0.69866,0.7887,-0.0376,0.41428,-0.06878,-0.07535,0.16002,-0.16185,-0.05343,0.31012,0.13643,-0.2566,0.12144,0.13277,0.6032,0.16481,0.28637,0.64927,0.8884,0.33221,0.46199,0.33723,0.01679,-0.43484,0.02019,0.17306,-0.38295,-0.70319,-0.7256,-0.81931,-0.97275,-0.29794,-0.78164,-0.83076,-1.1336,-0.96033,-0.33076,-1.1643,-0.27797,-0.7494,-0.45126,-0.76214,-0.29052,-0.74945,-0.13272,-0.11865,-0.95228,-0.22708,-0.31213,-0.86231,-0.55412,-0.94021,-0.62343,-0.29958,-0.95095,-0.56081,-0.48805,-0.83175,-0.95295,-0.43207,-0.12599,0.44073,0.7903,0.48785,0.25699,0.8442,0.38472,0.8271,1.1799,0.49354,1.32,0.8298,0.927,0.40002,0.1432,-0.0448,0.7754,1.0003,1.1924,0.8462,0.55691,0.8087,0.16592,0.25363,0.29943,0.72865,0.66756,0.47148,0.74668,0.51166,0.77364,0.8861,0.57749,0.9975,1.3468,0.77645
-0.032864,0.28723,0.43319,0.27971,1.2727,0.84778,1.061,0.56347,1.128,0.74553,1.3286,0.41294,1.0808,0.39887,0.8984,0.61783,0.9127,0.36513,0.47884,0.64817,0.2594,0.8149,0.23448,0.59385,0.00888,0.33,0.43173,0.8812,-0.06435,0.5849,0.58969,-0.09519,0.55679,-0.05602,0.4877,-0.23305,-0.19255,0.03629,-0.01154,0.28877,0.15738,0.28102,0.19994,0.11288,0.8473,0.05227,-0.02611,0.03152,-0.02009,-0.06824,0.16185,0.15591,-0.09177,-0.3852,-0.41646,-1.0039,-0.95543,-0.96802,-0.36564,-0.86106,-0.35681,-0.66198,-0.61268,-0.57067,-0.94622,-0.71967,-0.14442,-0.27255,-0.87594,-0.68724,-0.55688,-0.85945,-0.95989,-1.1114,-1.0996,-0.78742,-0.44958,-0.45512,-1.2741,-0.54583,-0.908,-0.36263,-0.13289,0.1179,0.01986,0.64642,1.0822,0.41589,1.0117,1.1023,0.60387,0.33786,0.367,0.6352,0.64367,0.7325,0.33635,1.0987,0.8035,0.54901,0.8966,0.47119,0.6813,1.0813,0.9824,-0.00881,0.2496,0.7974,0.6995,-0.04502,0.11367,0.17202,0.33202,0.05056,0.29654,0.52188,0.65495,0.74861,1.3342,1.1837
0.3747,0.71777,0.31061,1.143,0.86395,1.3552,0.9933,0.48778,0.9554,0.77573,0.61619,0.49191,0.48771,0.39802,0.67917,0.17757,0.56411,0.77714,0.52664,0.64021,0.48031,-0.05793,0.48555,0.8893,0.65889,0.9917,0.35247,0.29947,0.05494,0.33566,0.6994,0.20036,0.08062,0.02901,0.03763,0.63822,0.57261,0.17075,-0.06058,-0.14313,0.4369,0.31002,0.47538,0.42909,-0.08542,-0.22894,0.01809,0.17895,0.46307,0.09488,0.23288,0.4622,0.32603,-0.42617,-0.26639,-0.44076,-0.22656,-0.43466,-1.0744,-0.50956,-0.16907,-0.66122,-0.36776,-0.95033,-0.81399,-0.01341,0.00951,-0.86581,-0.70094,-0.40594,-0.08772,-0.25269,-0.56806,-1.2962,-0.46376,-0.4109,-0.32864,-1.3051,-0.46132,-0.4064,-0.51539,-0.72873,-0.48814,0.11113,0.8819,1.2272,1.0216,0.65261,0.6872,0.67449,0.70924,0.36468,1.2238,0.30557,0.41486,1.1308,1.167,1.0712,0.71789,1.2808,0.60405,0.986,1.1765,0.39825,0.41216,0.59801,0.68863,0.8875,-0.14052,0.28336,0.53243,0.79759,0.05826,0.78609,0.00861,0.61843,0.77655,0.9959,0.71065,1.3335
-0.01252,0.72158,0.48573,1.0792,0.46483,0.92717,0.73757,0.68553,1.1921,0.9686,1.0554,0.89934,0.25697,0.17201,0.59697,0.47618,0.9939,0.17199,0.44749,0.10524,0.21908,0.69582,0.2756,0.51038,0.25082,0.65268,0.52989,0.53348,0.7928,0.48134,0.38464,0.51229,0.32124,0.46419,0.14453,0.39087,0.29052,0.42615,0.30859,0.11436,0.09958,0.2005,0.60932,0.60278,-0.07138,0.2249,0.77226,-0.07964,0.48705,0.64695,0.78031,0.9361,0.23191,-0.20166,-0.18498,-0.14946,-0.40871,-0.20285,-0.80758,-0.02884,-0.11771,-0.15284,-0.10158,-0.01937,-0.71465,-0.62208,-0.81683,-0.32793,-0.64972,-0.16686,-0.19626,-0.87362,-1.2822,-0.53482,-1.017,-1.0822,-1.2254,-0.81308,-0.84195,-0.51454,0.11731,-0.42958,0.50981,0.00393,0.7472,1.2017,1.1018,0.6297,0.8867,1.524,1.2632,1.0196,1.279,0.39675,0.7389,0.8167,0.65404,0.40604,0.65504,1.1115,0.29395,0.7447,0.8224,0.7017,0.53204,0.74052,0.01631,0.0817,-0.20984,0.36398,-0.11319,-0.1862,0.8779,0.7758,0.21343,1.0775,0.9188,1.3669,0.57199,1.3221
0.9135,0.9584,0.42586,0.48236,0.90549,0.9247,1.2266,1.101,0.86448,1.3432,1.33,0.77735,0.19162,0.30282,0.5079,0.71762,0.7285,0.67983,0.4978,0.02298,0.15365,0.47595,0.39643,0.79556,0.27366,0.9225,0.37066,0.30268,0.15449,0.38828,0.50015,0.20104,0.56,0.80259,0.68487,0.09946,0.15569,0.27538,0.07375,0.74069,0.38088,0.44955,0.26346,-0.20113,0.25503,-0.07046,0.57918,0.411,0.42788,0.03435,0.74477,0.8305,0.40645,0.14489,0.30508,0.56758,-0.34895,-0.18616,-0.00616,-0.14565,-0.42159,-0.21082,-0.96892,-0.40336,-0.08208,-0.24184,-0.45467,-0.48327,-0.78632,-0.30031,-0.64057,-0.55401,-0.81335,-1.2579,-1.0062,-0.57431,-0.5701,-0.34665,-0.42747,0.27866,0.17303,0.11615,0.7567,0.8697,0.26552,0.57075,0.50365,0.96,0.8557,1.4724,0.58799,0.40999,0.8994,1.2739,1.107,0.57996,0.73952,0.6049,1.1644,0.56322,0.7506,0.44469,0.5701,0.8683,0.63134,0.6421,0.898,0.26701,0.19257,0.35848,0.56608,0.75235,0.24493,0.68928,0.00633,0.63512,0.65793,0.64088,1.3476,1.3378
0.61479,1.1995,0.92872,0.5147,0.43716,0.59004,1.1825,0.54528,0.8723,1.1006,0.89625,0.71377,0.41715,0.96,0.09795,0.8667,0.2493,0.67568,0.7599,0.55048,0.09639,0.38912,0.41033,0.50748,-0.02598,-0.12979,0.45817,-0.10379,0.07462,0.48208,0.18187,0.64757,0.21199,0.62576,0.75895,0.0468,0.55301,0.49188,0.46927,0.34919,0.20751,0.6566,0.74526,0.40459,0.39529,0.19905,0.41713,0.08872,-0.040346,0.29694,0.33371,0.66229,0.8334,0.5195,0.16256,0.27627,0.49684,-0.42825,-0.06412,-0.09841,-0.05854,-0.60435,-1.1141,-0.20589,-0.21218,-0.50503,-0.94399,-0.11552,-0.58262,-0.16781,-0.44288,-0.65994,-0.78199,-0.58108,-0.18648,-0.58416,-0.29166,0.28972,0.40695,0.46456,0.58428,-0.06628,0.31931,0.8554,0.34585,0.18541,0.33999,1.4091,1.2793,1.1751,0.69534,0.8185,0.46572,0.61546,1.0635,0.908,1.1693,1.3592,0.72157,0.39476,0.9621,1.2942,0.93,1.4152,0.40998,0.8105,0.9939,0.6626,0.35172,0.05093,0.70077,0.12323,0.22196,0.49026,0.19003,1.4717,1.4956,1.1424,0.64287,0.9082
1.1742,0.46997,1.2789,0.54861,0.59554,0.64793,0.57904,1.1329,1.1231,0.50828,0.68863,0.78089,0.14777,0.38571,1.0028,0.03441,0.11385,0.70431,0.24492,0.67324,0.819,0.5655,-0.07152,0.19928,0.60117,-0.24699,0.1189,0.46725,0.05613,0.21141,0.14268,0.12505,0.64236,0.2389,0.40669,0.51538,0.19209,0.74107,-0.00974,0.63992,0.83191,0.80074,0.27291,0.23635,0.70124,0.29102,0.30395,-0.4092,0.01266,0.44671,-0.10184,-0.12781,0.40304,0.8975,-0.12814,0.03144,0.57273,0.43249,-0.25768,-0.13343,-0.1781,-0.0773,-0.16182,-0.3272,-0.3107,-1.0552,-0.79055,-0.98573,-0.84131,-0.86379,-0.32568,-1.1582,-1.0336,-0.70966,-0.45231,-0.52375,0.2769,0.27972,-0.18492,-0.06247,0.27805,0.28765,0.01639,-0.00975,0.7754,0.7471,1.4499,0.82795,1.7484,1.1636,0.90747,1.0785,0.8696,0.861,1.0688,0.9938,0.49341,1.2804,1.0006,0.5206,1.1094,0.784,0.2313,1.259,0.33898,0.72837,0.60477,0.38685,-0.21543,-0.34687,-0.21113,0.12356,0.884,0.05367,0.79426,1.0655,0.79944,1.3475,1.3115,1.0681
0.81487,1.3282,1.2564,1.0485,0.94892,1.0245,0.56417,1.1956,0.41336,0.9916,0.9177,0.916,0.9589,0.3285,0.40703,0.24976,0.22302,0.22856,0.62815,0.19184,0.18475,0.19467,0.25619,0.06998,0.26152,0.10177,0.44877,0.51384,0.10706,0.39371,0.16847,0.74293,0.31915,-0.12771,0.39572,-0.23506,0.60476,0.52814,0.21339,1.1085,0.25595,0.93354,-0.28662,0.32211,0.3533,0.52725,0.75695,0.27395,0.27119,0.65003,0.70374,-0.07238,0.67149,0.62814,0.35021,0.18386,0.7522,0.45468,-0.43497,-0.03941,0.03287,-0.06952,-0.15598,-0.65399,-0.88702,-0.82254,-0.61723,-0.83112,-0.49728,-0.58252,-1.0445,-0.94723,-0.62942,-0.54372,-0.99075,-0.30015,-0.7145,-0.10537,-0.46954,-0.12445,0.23491,-0.05432,0.66683,0.4023,1.2433,0.68946,1.3447,1.7431,1.4854,1.3551,1.6952,1.6644,1.0131,0.25298,0.75633,1.1375,1.1087,0.7612,1.369,1.0439,1.1279,0.7171,0.40824,1.3391,1.0588,0.53565,0.37425,0.8642,-0.2565,-0.00821,0.03448,0.48779,0.38627,0.24055,0.74139,0.74776,0.79325,0.75288,0.57115,0.75484
1.2918,0.75087,1.1039,1.3154,0.9831,1.3857,0.69631,1.151,1.2721,0.9391,0.59386,0.62253,0.17303,0.7995,0.05586,0.64279,0.60382,0.07645,-0.16898,0.10665,0.57531,0.8783,0.57735,0.9117,0.4802,-0.06003,0.33525,0.9084,0.8422,0.44934,0.76847,0.33238,0.25086,0.21468,-0.18144,0.56822,-0.51218,0.49994,0.70279,0.15626,0.40059,0.50062,-0.70139,-1.1847,-0.17069,-0.28974,-0.26004,0.49778,0.25212,0.54255,0.04147,0.35478,0.48065,0.26114,0.15069,0.26006,0.71329,0.12595,0.32469,0.23782,0.07243,-0.68492,-0.75812,-0.98705,-0.98024,-0.97491,-0.64191,-0.65419,-0.48553,-0.49435,-0.7145,-1.2332,-0.45377,-1.0465,-0.63076,-0.24967,-0.30756,-0.69238,-0.24679,-0.20687,-0.45144,0.14943,0.31863,0.42558,0.6292,1.174,1.3128,0.52184,1.5698,1.1383,1.6362,1.3197,0.9595,0.54786,1.2928,1.3457,1.3993,1.1467,1.3902,1.2092,0.68052,1.1126,0.58151,0.53933,0.9062,0.8656,0.57701,0.7996,-0.09109,0.49771,0.10899,0.41785,0.47307,0.9032,1.1722,0.61934,0.9843,1.0806,1.0006,0.842
0.66779,1.337,1.0152,1.2423,0.44544,0.97801,1.3157,1.1269,1.0691,0.8893,0.25642,-0.19542,0.9737,0.41022,0.59384,0.57778,0.32528,0.06398,-0.01425,0.28417,0.46113,0.0564,0.68213,0.8875,0.68432,0.16369,0.72444,0.15314,0.04708,0.67996,0.32512,0.27802,0.53492,-0.15613,0.10403,0.23838,-0.03502,0.52314,0.75354,0.58979,0.22712,0.21561,-0.3837,-0.99377,-0.21101,-0.95974,-1.3195,-0.42509,0.55209,-0.29523,-0.05444,0.38467,0.6653,0.58086,-0.0079,0.05968,-0.18096,-0.26884,0.35623,-0.31312,-0.18383,-0.4415,-0.32047,-1.1303,-0.5031,-1.0206,-0.46095,-1.0217,-0.61768,-0.66677,-1.0856,-0.93408,-1.2502,-0.5533,-1.0032,-0.80356,-0.79231,-0.84733,-0.50621,-0.03774,-0.48634,-0.214,0.8184,0.62769,0.59903,0.6258,0.833,0.83214,1.6925,1.503,0.94486,1.5066,1.4211,1.1777,0.6392,0.51723,0.9221,1.0041,0.57264,0.48909,1.5122,1.5009,0.48414,0.68354,1.1488,0.71183,0.51658,1.2578,0.44159,0.20078,0.55919,0.51971,0.26678,0.72983,1.3401,0.62702,1.1079,0.9537,0.79558,1.1469
0.73938,1.0064,1.0111,1.1448,0.92227,0.74643,1.3532,0.82836,0.84432,0.59512,0.63119,0.0373,1.0024,1.3898,0.50613,0.40543,-0.02846,0.116,-0.09863,0.52812,0.9374,0.71515,0.22311,0.3737,0.09869,0.18959,0.47053,0.64529,0.2438,-0.05169,-0.00043,-0.1763,0.58758,0.28894,-0.21653,0.42497,0.58979,-0.31761,0.12688,0.61998,0.89467,0.47254,0.30192,-0.38734,0.1577,-1.0062,-1.1901,-1.4558,-0.1513,0.11678,-0.31344,-0.21398,0.3528,0.75688,0.01318,0.53983,0.24336,-0.09325,0.47328,0.26692,-0.42222,-0.65812,-0.93891,-0.58999,-0.21479,-1.0769,-1.184,-0.97106,-0.65134,-0.75827,-1.1047,-0.82876,-0.96958,-0.89338,-0.38736,-0.98958,-0.99098,-0.08695,-0.07541,-0.18503,-0.32575,0.11964,0.52556,0.11492,0.14682,-0.15262,-0.06944,0.8376,0.48279,0.89066,0.9384,-0.30383,0.35589,1.5239,0.81125,0.7103,1.5181,1.1092,0.74376,0.59684,0.8178,1.3463,0.76267,-0.07666,1.0426,0.67598,0.9507,1.2379,0.8907,0.65598,0.17437,0.48373,0.36694,0.7042,0.60293,1.0045,0.80433,1.1749,1.143,1.2664
0.86096,0.84094,1.2145,0.90364,1.0688,0.93231,0.9691,0.71395,1.0243,0.68744,0.69802,0.78116,0.51683,0.9243,0.62587,0.1425,0.08602,-0.33755,0.02937,0.7733,0.8932,0.13794,-0.05536,0.58837,0.33142,0.34134,0.30038,0.969,0.06822,0.07165,0.23121,0.16156,-0.09545,0.04461,-0.41273,0.4208,-0.13003,0.26277,-0.34725,0.7992,0.31639,0.49746,0.45357,-0.07829,-0.8041,-1.1342,-1.049,-0.8932,-0.58358,0.00198,0.51831,0.16344,0.13389,0.62769,0.19724,0.11696,0.08528,0.33382,-0.19881,-0.30099,-0.29199,-0.76425,-0.66582,-0.14659,-0.5596,-0.58339,-0.70101,-0.48813,-1.0307,-0.97973,-1.7735,-1.0543,-0.62667,-1.1679,-0.8586,-0.86839,-0.62288,-0.53421,-0.39211,0.36212,-0.06828,0.00821,-0.31259,-1.0692,-0.282,0.47014,0.54377,0.84296,0.70613,0.49027,1.0402,0.17572,0.59911,0.9656,0.64411,0.9763,0.41031,1.4596,0.66168,1.2097,0.69476,1.5202,0.8588,0.76171,0.25148,0.56229,0.9658,1.1496,0.46377,0.8917,-0.22382,-0.00382,0.27848,0.60124,0.8466,0.77216,1.2377,0.73402,1.3849,0.80454
0.77508,1.3996,0.57741,0.944,1.3345,1.4442,0.68828,1.3503,1.0159,1.2228,0.26398,0.10886,0.02516,0.28733,-0.08924,-0.10952,0.0697,-0.10829,0.50417,0.67125,0.26229,0.8501,0.1737,0.20999,0.082,0.8398,0.03319,0.9153,-0.10204,0.48488,0.34193,0.72244,0.12174,0.47373,0.60118,-0.27478,-0.02828,0.56546,0.30366,0.41581,0.30489,-0.11814,0.14542,-0.40671,-0.56249,-1.6244,-0.7732,-0.81521,-0.95854,-0.07074,0.78523,0.2525,0.40881,0.9566,0.40195,0.09572,0.73992,0.9704,0.9267,-0.28145,0.19956,-0.43846,-0.39124,0.05692,-1.0138,-0.53552,-0.64421,-0.78289,-0.41763,-0.57886,-1.2102,-1.3753,-0.49319,-1.0189,-0.65129,-0.59871,-0.53992,-0.18966,-0.49111,-0.20501,0.20817,0.05508,-0.6475,-0.67857,-0.07504,-0.16971,-0.06393,0.30646,0.7265,0.8531,1.104,0.28027,0.8735,1.2967,0.61107,0.38084,0.68899,0.51217,1.5851,0.77896,1.2706,1.0463,0.73296,0.9824,0.8224,0.8187,0.17841,0.26274,0.559,0.7853,0.30748,0.20703,0.16364,0.62001,0.55044,0.52019,1.0077,1.3586,1.1795,1.305
1.2916,0.83542,0.57296,0.96822,0.86599,1.2446,0.67697,0.94844,0.9842,0.78587,0.8286,0.48311,0.10743,0.59827,0.65134,0.61921,0.60991,0.47105,0.32213,0.8059,-0.03413,-0.09312,0.67851,0.37049,-0.0369,-0.0568,0.62255,0.72862,0.41957,0.29098,0.10875,0.77259,0.78754,0.8599,0.12632,0.6996,-0.14719,0.15108,0.32062,-0.38187,0.09122,-0.584,-0.40996,-1.0008,-1.1447,-1.5345,-1.3813,-1.0786,-1.0219,-0.50777,0.848,0.17899,-0.49512,-0.03479,0.70026,0.24282,0.66619,0.12332,0.55147,0.09447,-0.01749,0.2221,-0.08767,0.09672,-0.69707,-0.37005,-0.22375,-1.023,-0.51845,-0.31769,-1.1431,-0.94851,-1.0564,-1.154,-0.88958,-0.40127,-1.085,-0.62389,-0.20855,-0.51259,-0.13273,-0.45562,-0.39225,-0.93395,-0.27449,-0.05122,0.7203,0.8906,0.9239,0.80679,-0.0522,0.5022,0.8514,0.55019,1.2646,0.28941,0.68211,0.58237,0.6491,0.70089,1.5134,1.2203,0.66808,1.1747,1.3838,0.67505,0.35088,0.12674,0.3472,0.70915,0.8246,0.48421,1.2472,1.0572,1.0557,0.9319,1.3198,0.6509,1.4448,0.72067
1.2586,0.61581,0.64558,1.3737,0.97584,0.68585,0.56888,1.0002,0.86283,0.70489,0.8598,0.40154,0.11648,0.62592,-0.00566,0.52301,0.08266,0.9256,-0.03153,0.31873,-0.06554,0.03035,0.48987,-0.13338,0.45696,0.33155,0.76268,0.47956,0.11684,0.30001,0.848,0.1228,0.8623,0.24604,0.24986,0.26347,-0.02537,0.3438,-0.05486,0.05482,-0.40737,-0.15194,-0.26627,-0.79663,-0.40388,-0.29229,-0.65051,0.00844,0.1948,0.26025,0.23535,-0.095305,0.34727,0.03784,0.39776,0.73327,0.50503,0.9475,0.22641,0.02785,0.33138,-0.36873,-0.67156,-0.35311,-0.23646,-0.16858,-0.30505,-1.2189,-0.85242,-0.97292,-0.72631,-0.5212,-1.0989,-1.0201,-0.79614,-0.96735,-0.78562,-0.54483,-0.01803,-0.74703,-0.15926,-0.40818,0.0739,-0.13365,-0.34137,-0.41819,0.7295,0.2948,0.17164,0.6539,0.24506,0.33898,1.0667,0.7527,-0.16666,0.645,1.0188,0.9891,1.5264,0.788,1.0623,1.1435,-0.06295,1.1946,0.69495,1.1166,0.72395,0.34055,-0.13025,-0.23135,0.33304,0.43601,1.4186,1.4609,1.0296,1.2148,1.152,1.0871,0.9772,1.4676
0.53098,0.66487,0.73791,1.0025,0.50133,0.9065,1.1723,0.81614,0.72794,0.8614,0.19706,0.59135,0.4905,0.47788,0.21136,0.10377,0.64052,0.48121,0.31136,-0.19567,-0.01625,-0.12077,-0.14543,0.56116,0.67142,0.12767,0.56806,0.8144,0.35499,-0.13026,0.07639,0.08802,0.903,-0.09004,0.00761,0.51733,0.8619,0.86009,0.04886,0.36389,0.22138,0.56366,0.05001,0.57606,0.47289,0.42164,-0.39062,-0.02494,0.08063,-0.35651,-0.06928,-0.15859,0.8189,-0.02057,0.0976,0.51467,0.25055,0.39103,0.4096,0.2379,-0.36931,-0.36846,-0.67708,-0.0461,-0.18431,-0.84059,-0.39987,-0.26349,-0.84908,-0.96482,-0.91264,-1.1448,-0.37103,-0.5348,-0.66082,-0.87496,-0.48078,-0.74334,-0.12004,-0.1966,-0.23656,0.49253,-0.17455,-0.30402,-0.38861,-0.30655,-0.55351,0.33476,0.49125,0.50007,0.3859,0.9231,0.8711,-0.15438,0.57445,0.8561,1.7414,0.91174,1.4746,1.3993,0.65895,0.7074,0.1169,1.308,0.23032,0.46805,0.12119,0.4647,0.15474,0.08864,0.66804,0.77329,1.3317,0.81763,0.9531,1.1059,0.55912,0.64127,0.84131,1.4954
0.73809,1.1316,1.4089,0.63565,0.86418,0.54318,1.1041,1.263,1.3967,0.3232,0.0992,0.60316,0.41021,0.8058,0.69781,0.8408,0.8245,0.19722,0.36565,0.25624,0.7403,-0.10645,0.6071,0.7378,0.05706,0.44294,0.47993,0.6645,0.1117,0.14685,0.9451,0.80358,0.57429,0.49454,-0.0047,0.7491,0.41223,-0.02895,-0.21448,-0.33808,-0.44987,-0.66082,-0.63192,-0.60168,-1.0951,-0.75412,-0.63565,-0.13736,-0.41356,-0.23268,-1.1702,-0.01576,0.03156,0.7112,0.07344,0.9364,0.80159,1.1054,0.9942,-0.01718,-0.04752,0.00947,-0.34516,-0.11926,0.1142,-0.21148,-0.83799,-0.28037,-0.29855,-0.66778,-0.93522,-0.71834,-0.45012,-0.71427,-0.75263,-1.5253,-0.65011,-0.68989,0.07114,-0.51286,-0.04009,0.0204,0.10276,0.3937,0.13632,0.883,0.39109,0.8259,0.47662,1.2183,0.70764,1.1504,0.7905,0.60511,0.81633,1.5723,1.4453,1.6647,1.6527,1.5237,1.0709,-0.09416,0.37465,1.0789,0.5347,0.38724,0.45619,-0.16308,-0.06459,0.22109,0.49238,1.3572,1.1912,1.3097,1.4295,0.52184,1.4571,1.4705,0.71128,0.9726
0.65201,1.0514,0.51048,1.0967,1.2637,1.2432,1.3657,1.0636,1.042,0.81389,0.8893,0.39282,0.31174,0.883,0.59991,0.68689,0.41848,0.21456,-0.26039,-0.21274,0.6648,0.60155,0.53154,0.7629,0.7802,0.11038,-0.09645,0.2858,-0.09006,0.38824,0.8651,0.40667,0.10477,0.12192,0.40326,0.15629,-0.32556,-0.29963,0.26968,-0.21377,-0.71485,-0.21189,-0.5829,-0.73006,-0.63344,-0.2307,-0.24568,0.04575,-0.7227,-1.138,-0.6875,-0.49498,-0.16817,-0.25484,0.74942,1.1295,0.47998,0.16843,0.8168,0.19007,0.00249,-0.56709,-0.63409,-0.40158,0.02268,-0.3006,-0.99156,-0.34707,-0.91444,-0.64897,-0.20296,-0.62048,-0.43101,-0.68816,-0.89948,-1.3628,-0.89215,-0.21825,-0.56894,-0.10843,-0.19679,-0.73867,0.16572,-0.45308,0.7162,0.8382,0.41612,1.0014,0.35057,0.224,1.3084,1.1988,0.44728,0.50597,0.8684,0.9138,1.4654,1.0853,0.9817,1.642,0.46198,0.00089,1.0857,0.31685,0.30711,0.31429,0.42241,0.52587,0.11935,0.14164,0.70521,1.1347,1.2123,0.8138,1.1609,1.277,0.9939,0.80888,1.0929,1.2013
1.2701,0.42977,1.0412,1.036,1.3514,1.1247,1.33,0.53082,0.9799,0.52872,0.19669,0.7624,0.26876,0.01286,0.65683,0.08317,0.43515,0.09433,-0.02059,-0.45324,0.27565,-0.00668,0.21806,0.00519,0.60767,0.6813,0.21771,0.14164,0.37427,0.53428,0.65993,0.49652,-0.10214,-0.05933,0.56949,0.39389,-0.42954,-0.29437,-0.37205,0.07079,-0.27113,-0.16185,0.03073,-0.19023,-0.00451,-0.18178,0.07424,-0.73715,-0.17778,-1.1875,-0.44089,-0.36271,0.35605,0.57391,0.56467,0.61029,1.071,0.8595,0.12817,0.475,-0.24873,-0.09499,0.12572,0.05594,-0.12427,-0.69996,-0.8213,-0.99505,-0.24317,-0.12852,-0.13863,-1.1443,-1.4187,-0.16239,-0.84222,-0.84623,-0.60786,-0.41962,-0.6147,-0.49144,-0.11983,-0.59921,-0.58761,-0.31698,-0.60053,0.1772,-0.09756,0.17432,-0.18539,-0.07301,0.45216,0.7393,0.19831,0.8956,0.6846,0.772,0.6607,1.0656,1.0002,0.999,0.64973,0.66648,1.0711,0.48423,0.7101,0.7243,-0.01793,-0.18697,-0.13764,0.01887,1.2611,1.1648,0.8616,0.57741,1.3291,1.0398,1.4465,1.4642,1.3845,0.77377
0.67153,0.4954,1.0223,1.3424,1.2337,1.0876,1.3726,1.2414,1.4542,1.0145,0.8225,0.36175,0.7255,0.8666,0.12084,0.64494,0.40545,0.12974,0.63806,0.09651,-0.42688,-0.31158,-0.00668,0.24138,0.26207,0.26254,0.6207,0.35685,0.6422,0.44171,-0.23365,-0.13433,0.47856,0.09511,0.25641,0.28589,-0.12805,0.15157,0.02937,-0.76641,-0.1585,-0.22434,-0.69014,-0.31363,-0.37987,-0.01325,-0.0583,-0.23132,-1.0644,-0.32466,-0.18447,-0.3129,0.53454,0.55816,0.1627,0.64008,1.0787,0.8565,0.55462,-0.21553,0.19571,-0.43939,-0.64343,-0.7328,0.0256,-0.43026,-0.73098,-0.59959,-0.8732,-1.0878,-0.89918,-0.68212,-1.319,-0.90616,-0.65665,-0.50142,-0.17613,-0.86377,-0.44309,-0.12531,-0.28324,0.12392,-0.26635,-0.66601,-0.74726,-0.2718,0.06719,0.2579,-0.20026,0.4424,-0.09088,0.6876,0.08,0.6956,1.0748,1.0873,1.1218,1.0627,0.50204,0.48421,0.21585,1.316,0.69225,0.20135,0.02695,0.02923,0.17228,-0.10872,0.11075,0.9177,1.1826,0.66075,1.1734,0.50471,0.9532,1.1345,1.3733,0.64199,1.1683,0.8931
0.44357,0.70661,1.1248,0.5418,1.0781,1.3683,0.96195,0.83181,0.50632,0.41409,0.62486,0.50825,0.08395,0.7258,0.31779,0.00589,0.13008,0.809,0.19872,0.38755,0.37913,0.29313,0.48581,-0.22377,-0.39266,0.05074,-0.20168,0.33267,0.12493,-0.30169,0.44287,0.03343,-0.31263,-0.2015,-0.36239,0.30027,-0.51143,-0.02722,-0.51777,-0.69987,-0.63302,-0.73509,-0.07793,-0.25794,-1.0312,-0.8237,-0.23677,-1.0127,-0.91626,-0.57802,-0.57837,-0.07702,-0.07168,0.44124,0.26872,0.53642,0.8096,0.37805,0.7862,-0.31523,0.01438,-0.59075,-0.22624,-0.68814,-0.17557,-0.60208,-0.27964,-0.61961,-0.47201,-0.11999,-0.51824,-0.08837,-0.989,-1.4645,-0.6027,-0.25703,-0.64394,-0.14476,-0.71123,-0.58916,-0.06811,-0.49715,-0.27893,-0.03984,0.00383,-0.04289,0.04576,-0.28292,0.25614,-0.42087,0.04433,0.6582,0.25178,0.2705,0.07044,0.5346,0.9622,0.9285,0.51199,0.32276,0.39263,0.6945,1.4649,0.60069,0.18387,-0.12077,-0.25798,0.17768,0.39015,1.1049,1.1523,0.7445,1.2379,0.42949,0.49342,0.9155,0.57162,0.48349,1.5126,0.61294
0.51658,0.8856,0.81774,1.3893,0.76438,0.90449,1.1922,1.2881,1.1414,0.6803,0.9064,0.51331,-0.03617,0.34719,0.23633,0.45364,0.01608,0.19387,0.60599,0.1069,-0.06893,-0.37491,-0.53863,0.543,0.45041,0.28816,0.38332,-0.3866,0.31661,-0.29488,-0.02146,-0.03496,-0.33536,0.13721,0.15316,0.05671,-0.74969,0.05113,-0.20906,-0.46422,-0.80348,-0.17141,-0.77425,-0.84662,-0.11225,-0.47476,-0.39699,-0.67544,-0.36531,-0.12022,-0.78459,0.3455,0.14301,0.22075,0.45195,0.73555,0.838,0.35164,0.15245,0.33615,0.22055,-0.18337,-0.85226,-0.22415,-0.00615,-0.80822,-0.88684,-0.21288,-0.35105,-0.09453,-0.75667,-0.73945,-0.60697,-0.40784,-0.61486,-0.46244,-0.36427,-0.98891,-0.96145,0.03514,0.06553,-0.69391,0.0414,-0.42135,-0.42253,0.1475,-0.33283,0.3793,-0.31894,0.3458,-0.00762,-0.15449,0.4742,-0.33981,-0.2698,0.4441,0.8117,-0.22233,-0.28937,0.6033,0.9242,0.58283,0.9671,0.40383,0.27117,0.63564,0.1058,0.27888,0.69285,0.9612,0.9291,1.175,1.1993,0.29978,0.7957,1.1189,1.1849,1.258,1.2768,1.2761
0.806,0.4907,0.49618,0.53339,1.3335,0.8299,0.71018,1.1315,1.337,0.57006,0.34491,0.03944,0.1477,0.08224,0.8082,-0.01768,0.11385,-0.01631,0.2378,0.28699,-0.06535,-0.09856,-0.62949,-0.60763,-0.3092,-0.30557,0.03622,-0.05755,0.29152,-0.02953,-0.51788,0.08153,-0.36926,0.13787,-0.56704,0.07948,-0.81311,-0.38983,-0.85147,-0.4749,-0.22117,-0.33959,-0.75993,-0.75199,-0.62561,-0.46899,-1.0316,-0.75889,-0.89769,-0.33539,0.18008,0.27858,0.10181,0.51236,0.26564,0.26145,0.43492,0.8031,0.7377,-0.17197,-0.39559,0.12505,-0.2993,-0.79384,-0.17282,-0.39373,0.0461,-0.37083,0.0227,-0.6323,-0.34698,-0.60801,-0.36806,-0.53813,-0.47185,-0.99483,-0.21498,-1.0271,-0.95707,-0.46993,-0.5973,-0.06936,-0.24791,-0.81658,-0.00596,-0.19182,-0.41273,0.12787,0.05967,0.4204,-0.56297,0.3814,0.01882,0.08904,-0.19588,0.4231,-0.5349,-0.62059,0.08217,0.4551,0.42196,0.7505,0.58673,0.31048,0.791,0.7427,0.25509,-0.10151,0.11826,0.15446,0.37349,0.70757,0.59869,1.016,1.0802,1.1549,0.5403,1.1358,0.55016,1.4391
0.32698,0.79734,0.61236,1.2924,0.6331,1.2675,1.4134,0.7453,1.2103,0.51197,0.9935,0.32339,0.09129,0.55149,0.35757,0.42588,0.52615,0.03713,0.04182,0.6062,0.03804,-0.06285,-0.14022,-0.1971,-0.25418,-0.54886,-0.27118,-0.57609,-0.3996,0.06393,-0.07618,-0.39187,-0.319,-0.50571,-0.70123,-0.59443,-0.69331,-0.68476,-0.27183,-0.10773,-0.14643,-0.56938,-0.28622,-1.1304,-0.75267,-0.9174,-0.59717,-0.7683,-0.74144,-0.6416,-0.39401,0.40487,0.04947,0.45723,0.9565,0.47806,0.527,0.7616,0.23402,0.33874,0.16477,-0.72076,-0.58433,-0.95967,-0.75985,-0.37375,-0.28533,-0.54005,-0.67118,-0.50952,-0.39245,-0.43006,-0.523,-0.06016,-0.67198,-0.6605,-1.3671,-0.41246,-0.70351,-0.768,-1.0271,-0.74852,-0.05552,-0.75067,-0.08334,0.00573,0.02423,-0.38069,-0.09051,-0.03678,0.04039,0.1705,-0.45879,0.0085,-0.82935,-0.92287,-0.58722,0.4886,0.5365,0.26904,0.29597,0.8299,0.64333,-0.05748,0.7709,0.49969,0.20638,0.11965,0.20987,0.15098,0.16395,0.8337,0.51356,1.0685,0.58415,1.3252,1.2167,1.2078,0.75422,0.526
0.63338,0.73169,0.86029,0.9531,0.57304,0.87222,0.68619,1.0151,1.3228,0.49864,0.53607,0.57648,0.15674,0.3338,-0.00593,0.12212,0.02952,-0.00649,0.51586,0.0053,0.43537,0.20975,-0.08264,-0.18633,-0.40865,-0.23497,-0.63318,0.19093,-0.63094,-0.70804,0.15454,-0.04768,-0.22725,0.02247,0.04368,0.03725,-0.3671,-0.73384,-0.6191,-0.63339,-0.87109,-0.46364,-0.30755,-0.56033,-0.92744,-0.57063,-0.95654,-0.4749,-0.72425,-0.39165,0.35946,-0.1525,0.32368,0.848,0.12815,0.35449,0.3088,0.48625,-0.11151,0.07333,0.06098,-0.48829,-0.26933,-0.66835,-0.81688,-0.0077,0.02376,-0.68738,-0.71448,-0.93428,-0.56652,-0.84462,-0.71483,-0.24897,-0.95548,-0.76754,-0.38259,-0.69426,-1.2655,-1.1296,-0.43032,-0.58828,-0.47737,-0.43781,-0.62596,-0.16033,-0.69148,-0.20202,-0.24479,-0.03161,-0.23367,-0.37682,-0.26962,-0.7935,-0.25993,-0.355,-0.39789,0.15701,0.4598,-0.08968,0.6878,0.5666,0.51577,0.02462,0.25247,0.55306,0.29989,0.50538,0.60171,0.16547,0.18567,1.0997,0.40297,1.1862,0.49819,1.064,0.65066,0.9289,0.77105,0.8371
1.2512,0.62722,1.175,0.70746,1.0201,1.1691,0.52685,1.2237,0.63217,0.55878,0.78904,0.59012,0.51976,0.64396,0.30922,0.17594,0.16374,0.01097,0.6769,0.6738,0.52465,-0.25835,-0.29119,-0.594,0.26492,-0.24724,-0.32867,-0.90581,-0.75451,-0.25825,-0.25333,-0.33761,0.12067,-0.19866,-0.41332,-0.35112,-0.11494,-0.8883,-0.93381,-0.88596,-0.95149,-0.58941,-1.1871,-0.49202,-1.034,-1.107,-0.41468,-1.0873,-0.67667,0.39687,0.3903,0.7581,0.89,0.43295,0.9368,0.24209,0.69345,0.8698,0.50292,0.08197,-0.35108,-0.76856,-0.21453,-0.74526,-0.34558,-0.78442,-0.46861,-0.22884,0.0544,-0.47139,-0.57405,-1.0311,-0.41387,-0.21421,-0.71729,-0.27175,-0.84315,-0.90183,-1.0607,-1.0824,-1.3467,-0.90185,-1.2427,-0.34939,-0.42591,-0.61585,-0.6033,-0.23358,-0.52447,-0.39326,-0.6004,-1.2813,-1.0757,-0.61601,0.1456,-0.17632,-0.04861,0.11246,-0.13992,0.03704,0.6236,0.04782,-0.26281,0.7444,0.35124,0.57857,0.9366,0.5062,0.07823,0.6912,0.37007,0.5354,1.0521,0.41155,1.1399,1.3053,1.0016,1.0605,1.2312,1.345
0.92052,0.61082,0.60963,1.1776,0.70249,1.0581,1.1072,1.0499,1.1499,1.1081,0.57379,0.73782,0.06841,0.00512,0.7881,-0.16638,0.19657,0.64127,0.00255,-0.18062,0.16581,0.39194,0.22166,-0.40698,0.30515,-0.34887,-0.07612,-0.38192,-0.5462,-0.75249,-0.91857,-0.4172,-1.0912,-0.84492,-0.98722,-0.66817,-0.47095,-1.1308,-0.73757,-1.2042,-1.2122,-0.93776,-0.79537,-0.67003,-1.0833,-0.48235,-0.14981,-0.24605,-0.30733,-0.17037,0.11531,0.23232,0.59263,0.23832,0.9123,0.18536,0.38908,0.30437,0.7248,0.26289,0.23939,-0.703,-0.87444,-0.36434,-0.28596,-0.09719,-0.48228,-0.1549,-0.55198,-0.54117,-0.88751,-0.97864,-0.62962,-0.68903,-0.00122,-0.42071,-0.15063,-0.37237,-0.56124,-1.0376,-0.61658,-1.0902,-0.94607,-0.85961,-1.6475,-1.5277,-1.1395,-1.2498,-1.0533,-1.4894,-0.34813,-0.51409,-0.49716,-0.8127,0.1469,-0.56467,-0.45848,-0.47198,-0.264,-0.04163,-0.23663,0.22627,-0.5643,0.30162,-0.15906,0.7557,0.3158,0.49986,0.31708,0.47919,0.3157,0.978,0.46756,0.9921,0.32442,0.67369,1.0585,1.1004,0.51098,0.68097
0.60025,1.1565,0.62088,1.2834,1.0221,1.2168,1.4267,1.1669,1.1306,1.2625,0.78144,0.54294,0.7807,0.29488,0.37994,0.6671,0.47746,0.13641,0.19743,-0.07511,0.10844,0.32158,-0.30681,-0.41446,-0.34251,0.13185,0.07806,-0.70185,-0.66749,-0.66371,-0.67852,-1.0366,-1.0658,-0.86963,-1.3182,-0.96673,-1.2355,-1.1827,-1.2373,-0.4222,-0.71794,-0.75033,-1.0715,-1.1625,-0.68323,-0.35027,-0.513,-0.69091,-0.11899,-0.29287,0.01719,0.06612,0.1748,0.4005,0.71655,0.8069,0.49059,0.63827,0.25009,-0.14905,-0.53922,-0.9024,-0.27419,-0.98284,-0.87858,-0.23805,-0.80491,-0.00292,-0.63448,0.0943,-0.41942,-0.0515,-0.90359,-0.36915,-0.70921,-0.64673,-0.55427,-0.2847,-0.45693,-1.0471,-0.88053,-0.725,-0.32826,-0.24685,-0.58956,-0.96826,-0.63734,-0.70862,-0.12635,-0.51603,-0.41578,0.0604,-0.79581,-0.67462,-0.60511,-0.78923,-0.06791,-0.54866,-0.58696,-0.42579,0.2365,0.3145,-0.26128,0.04885,-0.03721,0.16683,0.18948,0.12216,0.7114,0.52766,0.8048,0.25234,0.6894,0.70808,0.4244,0.823,1.0315,1.3608,1.2628,0.52426
0.91274,0.83518,0.76773,0.9925,0.6781,1.2651,0.95667,1.2393,1.2474,0.47973,0.89405,1.2216,0.59687,0.7741,-0.0774,0.09128,0.6817,0.17372,0.18527,0.19531,0.01931,0.01807,-0.22112,0.03054,-0.51734,-0.59707,-0.03267,-0.76137,-0.03517,-0.76426,-0.7139,-0.13488,-0.26998,-0.45656,-0.67089,-0.13811,-0.31454,-0.71141,-0.52866,-0.83279,-1.1976,-0.70462,-0.88078,-0.92808,-0.56592,-0.92092,-0.55484,0.04853,0.11763,0.17955,0.23715,-0.04475,0.7469,0.53745,0.3591,0.52726,0.8144,0.49747,0.06174,0.31601,-0.15868,-0.4911,-0.37066,-0.36771,-0.07279,-0.05203,-0.29122,-0.11695,-0.3671,-0.47212,-0.22136,-0.1511,-0.48044,-0.22626,-0.81966,-0.83265,-0.57177,-0.05549,-0.27046,-0.75342,-1.0668,-0.62541,-0.76027,-0.27807,-0.84531,-0.9161,-0.06546,-0.76093,-0.84156,-0.69052,-0.26477,-0.87087,-0.21234,-0.24247,0.00509,-0.07292,0.081,-0.28492,0.02459,-0.05267,-0.49454,-0.28333,-0.34299,0.20782,-0.08112,0.5538,-0.03884,0.28036,0.8876,0.17819,0.14231,1.0405,0.41013,0.3768,1.146,1.3056,0.62759,1.0253,1.0982,1.106
1.0721,0.89966,1.0129,1.3159,0.9949,0.48623,1.2993,0.48135,0.62599,0.52901,0.95928,0.52871,0.02863,0.1299,0.7673,0.39516,0.28945,0.12324,0.36334,-0.13377,0.49059,0.41603,-0.118,-0.43667,-0.10331,0.1188,0.01902,-0.78296,-0.66488,-0.67854,0.02263,-0.19944,-0.06114,-0.3527,-0.40515,-0.50306,-1.1108,-0.90638,-0.35401,-1.0652,-0.53414,-0.29456,-0.67373,-0.86206,-0.23417,-0.48078,0.12157,-0.41893,0.15396,-0.16129,0.25567,0.49115,0.7387,0.8719,0.7169,0.22116,0.6265,0.33096,0.37386,0.22224,-0.34811,-0.16339,-0.8542,-0.21511,-0.73095,-0.45163,-0.71087,-0.07217,-0.39677,-0.66463,-0.39458,-0.77414,-0.26859,-0.26073,-0.66321,-0.6198,-0.83042,-0.21001,-0.72789,-1.0336,-0.81187,-0.97564,-0.12875,-0.73346,-0.64646,-0.14676,-0.90522,-0.17472,-0.18159,-0.24251,-0.62849,-0.17124,-0.63605,-0.24681,-0.86403,-0.69435,-0.6202,-0.08026,-0.85487,-0.10817,-0.6198,-0.31793,-0.04412,-0.27547,0.32896,-0.07217,-0.1232,0.6234,0.608,-0.11132,0.755,0.35791,0.31005,1.1992,0.8027,1.167,1.1914,1.1495,0.8772,1.1521
0.38873,0.45645,1.0559,1.298,1.2537,1.2675,0.49032,0.91312,0.76769,1.0926,1.4047,0.38984,0.69397,0.28664,-0.10313,0.09747,0.5923,0.46705,0.00058,0.7525,-0.03457,-0.07093,-0.05225,0.16624,-0.57747,-0.12088,-0.44988,-0.66214,-0.76267,-0.18628,-0.44847,-0.02209,-0.64322,-0.88172,-0.59454,-0.39488,-0.73304,-0.7966,-0.26218,-0.36535,-1.0659,-0.3834,-0.9499,-0.47465,-1.0677,-0.09345,-0.47068,-0.45733,0.37015,0.27434,0.31169,0.43809,0.7582,0.51221,0.46402,0.41902,0.28603,0.27826,-0.04789,-0.07815,-0.66712,-0.48689,-0.63789,-0.86994,-0.41209,-0.60115,-0.2829,-0.48459,-0.58166,-0.24948,-0.00316,-0.67786,-0.4001,-0.09428,-0.51543,0.0681,-0.2837,-0.2345,-0.44909,-0.84121,-0.24445,-1.0436,-0.70304,-0.35945,-0.70564,-1.0251,-0.64876,-0.93159,-0.66627,-0.47356,-0.89237,-0.07057,-0.61994,-0.39826,-0.84607,-0.81866,-0.05797,-0.47691,-0.43863,-0.77216,-0.90872,-0.63729,-0.04075,0.16589,-0.04486,0.18182,0.14825,-0.04748,0.04313,0.51321,0.0633,0.8756,0.6473,0.75972,0.9351,0.9201,0.6934,1.0302,0.9475,0.9672
1.079,0.71908,1.1219,0.34854,0.72255,1.0952,1.2786,0.63179,0.96176,0.63425,0.98264,1.2881,0.7901,0.17822,0.02231,-0.08085,0.33985,0.56567,0.04224,0.75,0.25401,-0.02619,0.12259,-0.26241,-0.47491,0.18375,0.10341,0.09393,-0.31479,-0.56445,-0.42458,-0.74178,-0.34707,-0.63201,-0.66056,-0.24712,-0.19478,-0.33019,-0.81435,-0.92194,-0.41256,-0.92368,-0.16545,-0.21677,-0.61084,-0.0791,-0.21214,0.50332,0.51613,0.23236,0.7397,0.42952,0.7897,0.65841,0.46469,0.02777,0.1176,0.5768,0.05238,-0.33136,-0.28323,-0.71418,-0.86902,-0.4235,-1.0347,-0.73533,-0.74387,-0.27193,-0.33358,-0.13628,-0.42506,-0.0342,-0.50501,0.00514,-0.81867,-0.38113,-0.70091,-0.33735,-0.57765,-0.32605,-0.47612,-1.1601,-0.30455,-0.69908,-1.0813,-1.0937,-0.22508,-1.0371,-0.76202,-0.13274,-0.62343,-0.55175,-1.0145,-0.31023,-0.16221,-0.0103,-0.84446,-0.53895,-0.7808,-0.48071,-0.61728,-1.028,-0.9685,-0.22192,-0.60075,-0.40278,-0.61842,-0.18885,0.20722,-0.14925,0.51388,0.55298,0.6635,1.1256,1.7267,0.91758,1.4084,1.5033,0.9078,0.859
0.71197,1.2898,0.36534,1.0248,0.68036,0.33752,0.41562,1.1058,0.54867,1.4195,0.86579,1.1237,0.9851,0.59205,0.62001,0.57857,0.68348,0.68442,0.27286,0.44172,0.7984,0.27439,-0.32203,0.5209,-0.11522,0.14715,-0.50874,0.12478,-0.03117,-0.20069,-0.84946,-0.2968,-0.40434,-0.27417,-0.62159,-0.96632,-0.95963,-1.1286,-0.46492,-0.46017,-0.86569,-0.22763,-0.91872,-0.58732,-0.39385,0.08222,0.18469,0.25988,0.23517,0.7941,0.9245,0.5884,0.9158,0.16672,0.9315,0.8141,-0.00966,-0.24547,-0.14672,-0.52894,-0.36409,-0.10704,-0.83014,-1.1378,-0.21871,-0.6364,-0.27907,0.02006,0.0598,0.00196,-0.63389,-0.28317,-0.23639,-0.32357,-0.09161,0.0567,-0.5045,-0.40314,-0.68677,-0.41594,-0.48292,-0.84335,-0.84818,-1.0745,-0.73276,-0.96702,-0.65684,-0.75221,-0.88749,-0.35561,-0.86784,-0.60148,-0.95468,-0.77487,-0.9985,-0.44752,-0.85857,-0.78435,-0.95921,-0.62684,-0.65501,-0.24867,-0.46589,-0.11628,-0.31285,-0.69112,0.04377,-0.38264,0.22931,0.27761,-0.17161,-0.0699,0.48061,1.4202,1.6061,0.93677,0.61423,1.3613,0.8665,1.1246
0.42485,1.3052,0.84082,0.37622,0.82409,1.0393,0.9754,1.2852,1.1807,1.1848,1.2365,0.72127,0.58999,0.0348,-0.06433,0.22814,-0.0375,-0.03534,0.8182,0.28388,0.19445,0.25413,0.21357,-0.03365,-0.15758,0.40098,-0.58273,-0.70869,-0.44757,-0.11634,-0.80692,-0.40296,-0.14545,-0.49879,-0.22307,-1.032,-0.34102,-0.18902,-0.2864,-0.57064,-0.77387,-1.0598,-0.58882,-0.51008,-0.36057,0.1006,-0.43352,0.21135,-0.08907,0.27477,0.9039,0.39465,0.8314,0.56023,0.53659,0.27113,0.6043,0.21173,-0.1377,-0.28013,-0.57948,-0.78189,-0.47478,-0.20941,-0.55371,-0.73587,-0.39368,0.0429,-0.51386,-0.13754,-0.45006,0.03875,-0.27739,-0.08878,-0.59748,-0.60731,-0.87223,-0.84938,-0.67508,-0.29388,-0.53092,-0.71917,-1.0723,-0.19466,-1.0689,-0.17437,-0.91652,-0.86988,-0.34585,-0.93501,-0.60817,-0.61656,-0.48759,-0.33945,-0.51621,-0.8455,-0.17973,-0.27143,-0.94272,-0.11425,-0.90113,-0.31387,-0.83413,-0.04359,-0.56163,-0.84832,-0.7825,-0.34702,0.20238,-0.45424,0.31928,0.2839,0.38232,1.1716,1.6496,1.2614,0.68808,1.5398,0.66005,1.0439
0.4672,1.0801,0.85068,0.36502,0.63529,1.0982,0.44842,0.90433,0.6085,0.56944,0.81393,1.1172,0.9771,0.6442,0.21694,0.7828,0.14411,0.11773,0.7196,0.10351,-0.01205,0.35983,0.39212,0.04855,-0.41576,-0.16805,-0.49375,0.20542,0.14137,-0.64724,-0.38421,-0.36658,-0.77015,-0.98001,-0.08079,-0.6337,-0.70422,-0.82848,-0.96057,-0.23704,-0.44514,-0.56475,-0.2004,-0.68198,-0.50627,-0.39636,0.27857,-0.11027,0.34798,0.9841,0.8165,0.19621,1.0343,0.00808,0.05265,0.03262,0.48987,-0.1843,-0.36314,-0.67299,-0.49259,-0.97624,-0.29058,-0.98641,-0.38828,-0.70021,0.01737,-0.67814,-0.38476,-0.17586,-0.82579,-0.29087,-0.88998,-0.91597,-0.98081,-0.73152,-0.24932,-1.0052,-0.08194,-0.58685,-0.8079,-0.7854,-0.55851,-1.0665,-0.13168,-0.71081,-0.69375,-0.39685,-0.75259,-0.2546,-0.69332,-0.86748,-0.92183,-0.08229,-0.0772,-0.22595,-0.50925,-0.08044,-0.03007,-0.15664,-1.0072,-0.57179,-0.14839,-0.13237,-0.90542,-0.24977,-0.91995,-0.67041,-0.40263,0.33514,-0.00376,-0.1556,1.3399,1.2239,1.607,0.94732,1.0028,1.3526,1.2475,1.4142
1.2451,0.45409,1.3146,1.2587,0.78246,0.9889,0.64537,1.2178,1.3855,0.45907,1.2348,0.62742,0.899,0.66266,0.15733,0.58647,0.1376,0.7881,0.247,0.04823,0.31639,0.66433,0.09168,-0.15982,-0.40434,-0.37191,0.15473,0.28375,-0.10212,-0.0543,-0.12912,-0.02189,-0.40669,-0.68308,-0.98831,-0.77473,-0.98725,-1.0566,-0.35802,-0.71912,-0.77774,-0.53876,-0.40069,-0.04822,0.04942,0.35317,0.22858,0.01582,0.5638,1.0054,1.0599,0.8964,0.9132,0.46632,0.51141,-0.12574,0.17295,0.00725,0.03455,-0.54497,-0.09908,-0.39043,-0.59251,-0.82433,-0.92869,-0.07161,-0.62973,-0.75774,-0.77406,-0.23504,-0.39605,-0.74979,0.00812,-0.47151,-0.29115,-0.74894,-0.79101,-0.5561,-0.08593,-0.64248,-0.80568,-0.2517,-0.22211,-0.49847,-0.14489,-0.14739,-0.08039,-0.61434,-0.19583,-0.38369,-0.15588,-0.88396,-0.39446,-0.30014,-0.09325,-0.35288,-0.67816,-0.21803,-0.02765,-0.67464,-0.57359,-0.20168,-0.95922,-0.12739,-0.09536,-0.16146,-0.92799,-0.23531,-0.38043,0.32624,0.22569,-0.06508,0.6175,1.0468,1.6553,0.80404,0.78627,1.4181,1.2726,1.501
0.37509,1.2691,1.1156,1.0223,1.2707,0.87241,1.3545,0.66902,1.1782,1.0478,1.3661,1.1188,0.9005,0.39151,-0.04176,0.69223,0.19947,0.20839,0.35113,0.7781,0.32525,0.13308,-0.20344,-0.26176,-0.1085,0.33271,-0.48545,-0.2723,-0.37469,-0.6366,0.1202,-0.16587,-0.85951,-0.42608,-0.92812,-0.62364,-1.0492,-0.39083,-0.97477,-0.45261,-0.95307,-0.72316,-0.67993,-0.52978,0.22357,0.13392,0.07936,0.20212,0.25676,0.9581,0.66744,0.48802,0.33659,0.40904,0.38341,0.09544,0.2977,-0.27783,-0.52941,-0.90156,-0.77897,-0.55628,-0.37773,-0.87352,-1.0482,-0.49002,-0.31551,-0.41323,-0.04958,0.1338,0.1427,-0.04756,-0.09317,-0.52298,-0.36715,-0.96364,-0.58611,-0.11969,-1.0108,-0.6724,-0.39939,-0.46408,-1.1096,-0.77529,-0.42801,-0.32503,-0.72425,-0.56852,-0.11014,-0.74055,-0.43258,-0.13888,-0.94359,-0.03296,-0.06889,-0.4003,-0.4766,-0.29501,-0.08172,-0.7533,-0.44389,-0.64355,-0.60154,-0.95623,-0.48305,-0.19101,-0.64398,-0.21828,-0.58268,-0.04825,0.3724,0.9124,1.3636,0.88767,1.6826,1.1045,1.4291,0.81746,0.81771,1.4303
1.0665,0.50061,1.0397,0.51258,1.0782,0.57682,0.86209,0.87605,1.0498,0.55504,0.72669,0.67111,0.58686,0.18679,0.39548,0.6771,0.8145,0.7796,0.37845,-0.05942,0.09753,0.62725,0.096,0.53498,0.3517,0.31416,-0.47492,-0.3538,-0.47063,-0.25881,-0.14729,-0.77708,-0.20414,-0.70484,-0.19611,-0.46948,-1.0682,-0.90658,-0.21223,-0.85541,-0.37382,-0.87117,-0.64166,-0.39441,-0.66288,-0.11925,0.65642,0.49332,0.46317,1.0415,1.1924,0.79625,0.6974,0.37397,0.10453,0.24792,-0.69904,-0.69548,-0.22523,-0.5885,-0.65147,-0.27595,-0.79577,-0.87346,-0.61869,-0.63237,-0.86022,0.0314,-0.20184,-0.64874,-0.68311,-0.36021,-0.40282,-0.17049,-0.33178,-0.38582,-0.23095,-0.83164,-0.11824,-0.83347,-0.08566,-0.69012,-0.8717,-0.47086,-0.59243,-0.27116,-0.21264,-0.96787,-0.24123,-0.80854,-0.55311,-0.34508,-0.71364,0.00793,-0.84109,-0.80957,-0.594,-0.05221,-0.81194,-0.36848,-0.66025,-0.38934,-0.43669,-0.54378,-0.10227,-0.79218,-0.36679,-0.13135,-0.61815,-0.3847,0.0447,0.16473,0.71741,1.3162,1.4055,1.5735,1.2051,1.3266,1.3765,1.6198
0.91994,0.37323,0.76852,1.0353,1.0827,0.37614,0.71458,0.8071,0.56777,0.8105,0.41464,0.84768,0.22989,-0.06556,0.40753,-0.05685,0.42203,0.6899,-0.08279,0.43841,0.7332,0.65196,0.00176,0.54843,0.2616,-0.28064,-0.19927,0.18719,-0.0592,0.0744,-0.54994,-0.1273,-0.17995,-0.48098,-0.19119,-0.62969,-0.39987,-0.36166,-0.45857,-0.6279,-0.7094,-0.63612,-0.4411,-0.16461,0.37331,0.36731,0.54558,0.55739,0.57804,1.1315,0.17268,0.15503,0.1226,0.42417,0.18767,-0.24721,-0.28994,-0.93609,-0.67181,-0.39377,-0.50228,-0.53248,-0.72261,-1.0974,-0.70609,-0.81576,0.04673,-0.88991,-0.71781,-0.66338,-0.13901,-0.09777,-0.2995,-0.72602,-0.8345,-0.84316,-0.52231,-0.29523,-0.09936,-0.62992,-0.77977,-0.4029,-0.1195,-0.88022,-1.0425,-0.84402,-0.12844,-0.76498,-0.41691,-0.48085,-0.21955,-0.47845,-0.96633,-0.83917,-0.00116,-0.1348,-0.65639,-0.31502,-0.23568,-0.47754,-0.93789,-0.63436,-0.59622,-0.91651,-0.94518,-0.77951,-0.44663,-0.14538,-0.42891,-0.42952,0.38806,0.2204,0.9256,1.4616,0.79763,1.2176,1.0097,1.4243,0.8401,0.80265
1.1302,1.3381,1.331,1.0532,0.49243,1.1082,0.74367,0.62801,0.9751,1.0741,0.60306,0.9947,0.931,0.08935,0.67286,0.30537,0.59709,0.8638,0.741,0.8586,0.62697,0.3472,0.7239,0.28113,0.45532,-0.30573,0.11724,-0.41896,-0.25329,-0.43924,-0.40509,0.18087,0.11369,0.00473,-0.78499,-0.5396,-0.21556,-0.40236,-0.70503,-0.30662,-0.15139,-0.17849,-0.44222,-0.03865,-0.14988,0.53191,0.9753,1.0742,0.68315,0.30769,0.49285,0.28541,0.5804,-0.05377,-0.27928,-0.39634,-0.81053,-0.75521,-0.48792,-0.46151,-0.26268,-0.85534,-0.32179,-0.62499,-0.53,-0.86376,-0.56403,-0.68661,-0.86274,-0.96332,-0.94146,-0.55218,-0.22318,0.02784,-0.16494,-0.18447,-0.36824,-0.9765,-0.72386,-0.42769,-0.0585,-0.9793,-0.05288,-0.33864,-0.72141,-0.82169,-0.22976,-0.42065,-0.29156,-0.31017,-0.61402,-0.9631,-0.78904,-0.18226,-0.83059,-0.89449,-0.57339,-0.06847,-0.39011,-0.21457,-0.53928,-0.38829,-0.9377,-0.14435,-0.93144,-0.32537,-0.63259,-0.64269,-0.54137,-0.58765,0.524,0.49609,1.4891,1.6394,0.74372,0.93175,1.5719,0.9398,0.7708,1.3447
0.51795,1.1811,1.2707,0.3683,1.3358,0.75966,0.67543,1.3487,0.74685,1.2799,1.2804,0.7225,0.55398,0.22033,0.34694,0.11686,0.1693,0.41765,0.66411,0.28742,0.911,0.13304,0.67795,-0.18886,-0.18346,-0.2539,-0.19911,-0.48372,0.18324,0.28163,-0.30472,-0.74344,-0.28929,-0.65429,-0.50193,-0.35836,-0.73582,-0.24649,-0.86864,0.04206,-0.28567,-0.4238,-0.19032,0.3999,-0.00506,0.33934,0.46181,0.26942,0.80702,0.71604,0.46865,0.20236,0.45491,-0.29761,0.06399,-0.53717,-0.57752,-0.28988,-0.90218,-1.0881,-0.5736,-0.70211,-0.23066,-0.95505,-0.62723,-0.8437,-0.26343,-0.83307,-0.87637,-1.1954,-0.93658,-1.0188,-0.14719,0.01352,-0.91901,-0.5887,-0.74258,-0.20143,-0.58283,-0.42146,-0.50083,-0.93347,-0.69282,-0.52169,-0.83426,-0.82155,-0.75233,-0.46217,-0.52352,-0.93244,-0.81175,-0.72738,0.00349,-0.68264,-0.8106,-0.54735,-0.23457,-0.66126,-0.69407,-0.70214,-0.52494,-0.83877,-0.84698,-0.66374,-0.57866,-0.37449,-0.9062,-0.7145,-0.75174,-0.11635,0.10555,0.55377,1.2178,0.9496,1.2202,1.498,1.2243,1.2818,1.103,0.71023
0.79444,1.2201,0.74719,1.3059,1.2163,0.35122,0.50841,0.74094,1.1861,0.80564,1.3956,0.66405,0.50719,0.3064,0.8576,-0.06245,0.19098,0.28538,0.5268,0.40331,0.23673,0.63859,0.00649,0.40125,0.60735,-0.08628,-0.05317,0.04513,0.01301,0.13606,0.08895,-0.56402,-0.03356,-0.58977,-0.19823,-0.55555,-0.08703,-0.7145,-0.33058,-0.50871,-0.09324,-0.50684,0.12317,0.44559,0.62339,0.6441,0.8722,0.8898,0.43901,-0.17389,0.40465,0.13973,-0.29772,0.00969,-0.12766,0.0469,-0.41899,-0.86873,-0.98438,-0.64217,-0.88255,-0.39961,-0.69521,-1.0246,-1.1525,-0.74236,-0.4039,-0.88706,-1.2045,-0.81601,-0.49739,-0.90246,-0.89346,-0.56818,-0.07443,-0.1647,-0.68563,-0.89847,-0.67756,-0.71172,-0.23033,-0.91701,-0.37834,-0.64132,-0.9522,-0.5691,-0.18725,-0.05505,-0.93635,-0.46177,-0.29757,-0.86172,-0.56076,-0.53255,-0.74678,-0.00342,-0.64643,0.01299,-0.97077,-0.49385,-0.36673,-0.09631,-0.5122,-0.68331,-0.12321,-0.84698,-0.2612,-0.75774,0.09155,0.11802,0.38276,1.2376,0.79268,0.61265,0.75099,1.4658,0.78432,1.5696,1.4915,1.2907
0.83924,1.2085,0.67749,0.9868,1.0193,0.96294,0.80801,0.86474,1.3826,1.2023,0.44211,0.92468,0.68628,0.37863,0.57957,0.4,0.6288,0.03372,0.30312,0.11365,0.3772,0.5505,0.21367,0.6881,0.41913,0.57553,0.57,0.42385,-0.13338,-0.13989,-0.06291,-0.51399,-0.2056,-0.67795,0.15704,-0.78761,-0.71105,-0.32399,-0.45193,0.14268,0.06575,-0.37318,-0.16053,0.42588,0.38308,0.9824,0.9692,0.65261,0.78,0.11226,0.44938,-0.38844,0.38625,-0.45611,-0.33043,-0.27178,-0.5164,-0.32677,-0.31897,-0.46671,-1.1659,-0.97382,-1.051,-1.1544,-0.67703,-1.2057,-1.0367,-0.8942,-0.9312,-0.76203,-1.209,-0.26106,-0.68923,-0.80642,-0.33127,-0.1684,-0.00097,0.00431,-0.48049,-0.73752,0.00232,-0.03972,-0.26545,-0.65588,-0.44463,-0.0914,-0.26846,-0.19677,-0.01016,0.00495,-0.62383,-0.63974,0.02089,-0.88946,-0.19423,-0.22607,-0.51783,-0.80805,-0.10562,-0.24937,-0.95318,-0.97257,-0.28877,-0.05263,-0.50361,-0.6064,-0.63069,-0.32363,-0.65983,-0.10996,0.7347,0.76734,0.87894,1.1805,0.88504,1.2306,1.5497,1.6582,1.34,0.977
0.72629,1.2603,1.195,0.86636,0.84675,0.3551,0.67093,0.45602,0.86662,1.0521,0.88622,0.60497,0.95102,1.0506,0.06307,0.50794,0.0008,-0.01412,0.68573,0.68316,0.59087,0.31125,0.7021,0.25239,0.44342,0.42678,-0.13512,0.26635,-0.32292,-0.33446,-0.26659,-0.27331,-0.09239,0.27506,-0.57541,-0.41325,-0.015,0.06419,0.0026,0.09918,-0.16596,-0.26891,0.19771,0.21516,0.39921,0.68529,1.1225,0.84392,0.66233,-0.23776,0.2292,-0.25332,0.14156,0.25763,-0.18799,-0.46371,-0.46451,-0.76276,-0.42228,-0.91933,-0.80827,-1.1729,-0.61084,-0.41952,-0.72868,-0.54644,-0.79948,-0.93789,-0.72768,-1.0353,-0.46608,-0.95786,-0.65213,-0.06966,-0.1214,0.03244,0.02461,0.06504,-0.11722,-0.17919,-0.77891,-0.29059,-0.78787,-0.02594,-0.47217,-0.43335,-0.76341,-0.1835,-0.69773,-0.83433,-0.15419,-0.70891,0.04281,-0.35552,-0.03986,-0.11988,-0.87968,-0.52909,-0.76953,-0.31813,-0.78665,-0.64131,-0.71113,-0.72576,-0.69619,-0.41406,-0.77139,-0.18797,0.11301,0.25617,0.28237,1.5186,0.61866,0.948,1.5847,0.90415,0.84595,1.2599,1.2894,1.4027
0.60916,1.2961,0.67283,0.68488,0.93734,1.213,0.9768,0.85986,1.1422,0.95212,0.40494,1.2804,0.70302,0.65676,0.15456,-0.05953,0.7267,0.16108,0.8045,0.6472,0.51609,0.15878,0.35726,0.53704,0.28905,0.1892,0.09521,0.52425,0.33503,-0.18693,-0.29854,0.1663,-0.31424,0.20874,-0.16288,-0.28034,-0.06234,-0.11374,-0.52428,-0.41268,-0.00244,0.49827,-0.0032,0.60949,0.69968,1.0335,1.1144,0.58014,0.21708,-0.1289,-0.00487,0.57911,0.5713,0.29567,0.27569,-0.17492,0.1103,-0.71573,-0.66077,-0.97378,-0.23017,-0.93635,-1.0311,-0.67327,-0.74778,-0.73502,-0.99878,-0.12036,-0.65747,-0.15942,-0.89385,-0.15527,-0.25273,-0.28392,-0.45208,0.02831,-0.51962,-0.12771,-0.35363,-0.77832,-0.00077,-0.3215,-0.20298,0.1022,0.1485,-0.50857,0.06292,-0.65077,-0.10242,-0.00209,-0.3439,-0.322,-0.39191,-0.71016,-0.05944,-0.49759,-0.50905,-0.63941,-0.58896,-0.67305,-0.2978,-0.33041,-0.17722,-0.08028,-0.65455,-0.20194,0.0046,-0.41444,0.15976,0.16146,0.66875,1.0154,0.64275,1.4714,1.3604,1.0924,1.23,1.1493,0.72407,0.72031
0.72519,0.4793,0.691,0.5712,0.85067,0.69388,0.76213,1.1681,0.86951,0.65017,0.43801,0.41366,1.079,0.76814,0.24542,0.68826,0.61466,0.804,0.7883,0.71633,0.25931,0.6698,0.34751,0.0469,0.45453,0.08554,-0.02292,0.5012,0.20497,-0.49422,0.17142,-0.41091,-0.19858,-0.54524,-0.36501,-0.71493,-0.53857,-0.51348,-0.46345,-0.52944,-0.5539,-0.39954,0.18982,0.11902,0.75913,0.68999,1.0616,0.85152,0.32028,0.15807,0.10091,0.57921,0.50889,0.49525,0.53032,0.848,0.33053,-0.66638,-0.4748,-0.56101,-0.25529,-0.79234,-0.38168,-0.48589,-0.09643,-0.76072,-0.86779,-0.41991,-0.39556,-0.59112,-0.40742,-0.00265,-0.7426,-0.11609,-0.25033,-0.40012,-0.38146,-0.21074,-0.86051,-0.43992,0.13438,-0.58224,-0.11628,-0.1084,-0.08044,-0.28536,-0.30832,-0.4142,-0.35165,-0.42717,-0.58751,-0.03548,-0.68776,-0.11393,-0.46395,-0.5813,-0.50591,-0.06549,-0.76047,-0.0464,-0.75498,-0.08362,-0.10363,-0.9483,-0.97046,-0.29257,-0.3644,-0.81356,-0.03001,0.29018,1.1324,1.1619,0.63992,1.046,1.4628,0.67342,0.64331,1.2531,0.63805,1.2363
0.34799,1.263,0.46422,1.0531,0.42344,0.41564,0.92847,1.2295,0.63785,0.90333,0.88714,1.1901,1.0303,0.36188,0.66579,0.48581,0.47915,0.06229,0.49839,0.65423,-0.11859,0.8279,0.40107,-0.01138,0.38826,0.7478,0.26382,0.55856,-0.0932,0.13369,-0.01254,-0.28274,0.15605,0.22315,-0.46952,-0.06446,-0.58137,-0.37521,-0.45686,-0.65736,-0.53473,-0.21346,0.11859,0.31893,0.8456,0.67358,0.85027,1.2654,0.40623,0.28865,0.40905,0.69484,0.9827,0.57358,0.23697,0.48022,-0.16381,0.17735,-0.26312,-0.14931,-0.52169,-0.54825,-0.82542,-0.59331,-0.51023,-0.36404,-0.33447,-0.42655,-0.56516,-0.47735,-0.53449,-0.65143,-0.54366,-0.54168,-0.30504,-0.52052,-0.34187,-0.4362,-0.3234,-0.72027,-0.2853,-0.59645,0.05023,-0.11396,0.2037,-0.14557,-0.06811,-0.49858,-0.7475,-0.64557,-0.05192,-0.52549,-0.74678,-0.63746,-0.33406,0.01811,-0.31236,-0.66698,-0.12329,-0.34619,-0.07293,-0.29235,-0.25039,-0.65237,-0.57924,-0.21309,-0.75519,0.08188,-0.27074,-0.28962,0.46873,1.2052,0.66273,1.3772,0.55181,0.9134,0.9089,0.68203,0.8504,0.80274
0.84043,0.73568,0.94607,0.46778,0.46223,1.2648,0.97743,0.71391,0.60554,0.44094,0.82034,0.63536,0.88208,0.50804,0.73123,0.8815,0.18304,0.17855,0.20727,0.51769,0.63271,0.12347,0.7329,0.62136,0.68215,0.06423,-0.05821,0.19352,-0.1042,0.0985,-0.37183,0.15904,-0.38696,0.06382,-0.44756,-0.26442,-0.27067,-0.10185,-0.36912,-0.66168,-0.21729,0.55858,-0.02436,0.48684,0.40303,0.64578,1.3128,0.73772,0.39137,0.9594,0.74338,0.38038,0.51285,0.88108,1.2882,0.76016,0.31049,-0.07439,-0.10437,-0.1296,-0.28736,-0.57341,-0.36756,0.01919,-0.12273,-0.55931,-0.34181,0.09736,0.4248,0.5853,0.9711,0.752,0.4035,-0.00474,-0.06615,-0.33797,-0.34531,-1.0103,-0.96516,-0.70423,-0.18018,-0.77127,-0.60469,-0.19168,0.07057,-0.3415,-0.27524,-0.51333,-0.01351,-0.50687,-0.32617,-0.6006,0.0926,-0.06281,-0.35141,-0.70502,-0.60299,-0.20477,-0.16772,-0.35815,-0.8201,-0.02787,0.02649,-0.39764,-0.36735,-0.89828,-0.74118,-0.85568,-0.42755,0.39645,0.88835,0.61043,0.34541,1.379,0.78705,0.71883,1.3765,0.942,0.66692,0.73368
0.8431,0.85183,0.35081,0.6693,0.62072,0.49414,1.1042,0.91471,1.1283,0.51742,1.015,0.50762,0.54134,0.88905,0.59158,0.8516,0.7854,0.51745,0.20625,0.11868,0.7538,0.24604,0.8758,0.28773,0.57425,0.40275,0.5214,0.15544,-0.19269,0.29449,-0.26058,0.3159,-0.26066,-0.51741,0.00268,-0.50388,0.21248,-0.11609,-0.35823,-0.60576,0.12765,0.21519,0.47107,0.54811,0.16543,0.8351,0.40205,1.2517,0.39692,1.2401,0.68439,0.48745,0.9367,0.8857,0.44083,0.68431,0.35136,0.8573,0.39828,-0.13055,0.14924,-0.48046,-0.18006,-0.78848,0.03406,0.19011,0.05111,-0.15412,0.06862,0.10354,0.5068,-0.41338,-0.25973,-0.21781,-0.34379,-0.04846,-0.24447,-0.74763,-0.92017,-0.12467,-0.36117,-0.73964,0.12965,0.00395,-0.25007,0.1576,-0.64732,-0.25561,-0.53246,-0.43662,-0.19646,-0.09261,-0.4292,-0.15986,0.1595,-0.5564,-0.77901,-0.70089,-0.66201,-0.45632,-0.69981,-0.3995,-0.25661,0.05361,-0.76489,-0.76114,-0.52162,-0.17162,-0.65942,0.49694,1.08,1.0807,0.59585,0.9029,0.62569,0.8475,0.9327,1.2958,0.65714,1.086
1.1663,0.3777,0.44715,0.35522,0.37133,0.73109,1.1119,0.38601,1.2108,0.95927,1.1798,1.312,0.70278,0.51484,0.34725,-0.0041,0.03869,0.35895,-0.02556,0.06012,-0.07773,0.59514,0.41317,-0.10115,0.8843,-0.0237,0.38568,0.41153,0.16651,0.53036,-0.05215,-0.16718,-0.02049,0.23978,-0.49884,-0.57645,-0.19794,-0.59411,-0.47746,-0.65667,-0.25992,-0.23841,-0.11972,0.33198,-0.01289,0.08152,0.52583,1.099,0.63522,0.36672,0.3716,0.54254,0.82006,0.8855,0.62627,0.33656,0.39817,0.39908,0.72769,0.57936,-0.2372,-0.44666,-0.40485,-0.06733,-0.13178,-0.4112,-0.35877,0.07596,0.2856,-0.20108,0.08342,-0.42709,-0.57118,-0.24941,-0.22619,-0.68902,-0.31029,-0.98049,-0.58953,-0.16946,-0.13482,-0.58633,-0.60849,-0.40085,-0.48433,-0.04058,0.10064,-0.02066,-0.6107,-0.34062,-0.76999,-0.77222,-0.32456,-0.244,-0.05875,-0.2646,-0.86811,-0.39728,-0.42168,-0.19582,-0.38373,-0.41784,-0.75515,-0.63822,-0.01404,-0.43488,0.0376,-0.24829,-0.46938,0.2717,1.367,1.0609,0.57545,1.3773,1.204,0.68468,0.7683,0.9472,1.381,0.8453
0.80143,0.95296,0.8342,0.52988,1.3476,0.81675,0.87295,0.54753,0.57147,0.63715,0.77646,0.63213,0.71166,0.87186,0.9838,0.36103,0.21555,-0.0748,0.55445,-0.10559,0.45113,0.29601,0.749,0.30735,0.33089,0.27239,0.53096,0.44532,0.52671,0.21629,0.04562,-0.19553,0.20896,-0.53971,-0.2778,-0.42806,0.07963,-0.29801,-0.57275,0.00532,0.07192,0.18422,0.5342,-0.07156,-0.02109,-0.01527,0.8937,0.7611,0.3313,0.9515,0.84174,0.9036,0.34644,0.2676,0.26193,0.74318,0.69834,0.31891,0.9617,0.07448,-0.11775,-0.01312,0.6656,0.5786,0.14385,-0.45692,-0.76241,-0.70797,-0.84448,-0.51824,-0.62597,-0.87401,-0.76467,-0.14006,-0.88593,-0.23758,-0.47174,-1.0579,-0.52316,-0.75247,-0.41824,-0.1464,-0.44932,-0.28712,-0.46709,-0.07489,-0.55893,-0.57646,-0.60061,-0.14516,-0.06883,-0.84591,-0.81604,-0.13362,-0.59002,-0.40676,-0.12036,-0.73053,-0.30361,-0.76542,-0.40357,-0.19983,-0.32659,0.04975,-0.57142,-0.60755,-0.80528,-0.82511,-0.43044,1.044,0.57838,0.55691,0.8208,0.8938,1.4068,0.9421,0.7845,0.65475,1.2529,1.0434
0.61332,0.93926,0.5842,0.983,1.2929,0.89793,0.71259,0.66414,0.90079,0.76224,1.2606,1.0621,0.39278,0.39411,0.92616,0.8768,0.72499,0.46097,0.61422,-0.05519,0.3772,0.23553,0.48139,-0.0263,0.7477,0.01791,0.22976,0.24745,-0.23797,0.17702,-0.39287,0.07604,0.28314,-0.11984,-0.50676,-0.59129,-0.17928,-0.40716,-0.03834,-0.24459,-0.52129,-0.31613,-0.00043,0.59236,-0.15686,-0.16456,0.2918,0.62766,0.8243,0.35419,0.45743,0.8338,1.0964,0.9881,0.78742,0.60335,0.54521,0.68783,0.11571,-0.00745,0.47622,0.19751,0.00225,-0.74472,-0.2036,-0.2829,0.00926,-0.33876,-0.29573,-0.88581,-0.62327,-0.8306,-0.75986,-0.54059,-0.2533,-0.72273,-0.54815,-0.87086,-0.54338,-0.88292,-0.68547,-0.402,-0.55746,-0.94408,-0.85038,-0.33895,-0.82004,-0.63603,0.05918,-0.71072,-0.22749,0.0185,-0.01523,-0.29421,-0.00896,-0.14541,-0.61551,-0.47183,-0.31422,-0.617,-0.16132,-0.6241,0.0667,-0.68029,-0.5731,0.04418,-0.34263,-0.22328,-0.0098,1.4422,0.60663,1.1522,0.41626,1.065,0.62136,1.2921,0.67748,0.50497,0.81896,0.81477
1.151,1.3014,0.33928,0.53213,0.68949,0.9984,1.2271,1.1445,1.2012,1.1444,0.55687,0.87776,0.57502,1.1912,1.3167,0.19232,0.00084,0.33919,0.21705,0.55754,-0.07885,0.59595,0.4248,0.65005,0.57621,0.9147,0.903,0.53095,-0.10444,0.17681,-0.40871,0.13626,-0.26389,-0.45105,-0.54619,-0.25826,0.22328,-0.47129,-0.10328,-0.06674,-0.36905,0.51874,0.25438,-0.09197,-0.31683,0.48296,0.37024,0.15842,0.18487,0.46132,0.29832,0.21991,0.01158,0.34398,0.6195,0.34049,0.7082,0.43138,0.6059,-0.25336,0.40335,-0.26155,-0.27828,-0.40647,-0.96366,-0.3068,-0.20062,-0.0095,-0.73578,-0.65847,-0.06351,-0.89158,-0.41441,-0.42534,-0.77385,-0.35589,-0.13881,-0.94058,-1.0001,-0.17248,-1.0645,-0.21894,-0.37191,-0.13992,-0.6499,-0.24338,-0.57389,-0.14207,-0.83731,-0.66742,-0.49535,-0.18538,-0.38721,-0.09517,-0.67178,-0.97882,-0.26867,-0.33657,0.1295,-0.46707,-0.01376,-0.26371,0.1975,-0.55217,-0.18174,-0.86628,-0.70722,-0.36915,0.8186,1.1237,0.51669,0.34576,1.0766,0.49707,1.0326,1.2642,0.7894,0.59834,0.9775,1.0007
0.54494,0.75721,0.53957,1.0524,1.0627,0.52434,1.1274,0.52393,0.41694,0.43474,0.43455,1.0949,1.2387,0.30045,0.80337,0.5855,0.04153,-0.02831,0.32697,0.13695,0.07323,-0.0674,0.15198,-0.02407,0.58275,0.38898,0.33536,-0.08622,0.27919,0.64871,0.10025,-0.2622,0.38363,-0.0912,-0.01685,-0.50226,-0.57787,0.11322,-0.14193,-0.02587,-0.24992,-0.49237,0.41443,-0.45536,0.38444,-0.28305,0.05763,-0.23456,0.39401,0.16717,0.25347,0.6605,-0.2116,0.7203,-0.03522,-0.14221,-0.07355,0.14281,-0.47684,-0.40929,-0.12423,0.02793,-0.14717,-0.17667,-0.7468,-0.15299,-0.24806,-0.07619,-0.22806,-0.72611,-0.38166,-0.85833,-1.0282,-0.41411,-0.03534,-0.7698,-1.0069,-1.0254,-0.25834,-1.045,-1.0352,-0.3037,-0.72123,-0.20115,-0.69499,0.03665,0.00325,-0.77536,-0.11616,-0.76715,0.1381,0.09231,-0.35175,0.2306,-0.31233,-0.93077,-0.67046,0.1559,0.05837,-0.01849,-0.01182,-0.4731,-0.33146,0.09159,-0.05864,-0.2822,-0.92714,0.32374,1.118,1.1872,0.7345,0.5502,1.3031,0.66178,0.67361,1.2679,0.704,1.047,0.9836,0.74116
0.39033,0.75054,1.2689,0.89023,0.4465,0.631,1.064,0.87414,1.1287,0.37457,0.83827,0.50036,0.64358,0.37598,0.47808,1.2341,1.0436,0.20218,0.49522,0.36845,0.18193,0.56894,0.23768,0.43716,0.8047,0.5401,0.2675,0.8742,0.35461,0.52179,0.39892,0.15828,-0.03972,-0.55534,0.24285,-0.49784,-0.01838,-0.2773,-0.26455,-0.14941,0.17587,0.21907,-0.03463,-0.17682,0.13245,-0.45354,-0.16159,-0.14776,0.20432,-0.29655,0.2823,0.11993,-0.15164,-0.04696,0.4656,-0.12727,-0.34708,-0.36859,-0.80666,-0.97471,-0.12089,-0.43288,-0.53886,-0.47977,-0.03127,-0.36071,-0.73429,-0.27829,-0.56939,-0.63267,-0.63441,-0.95283,-0.32542,-0.56304,-0.34652,-0.15545,-0.98965,-0.78428,-0.37275,-0.69901,-0.59095,-0.29436,-1.0693,-0.21472,-0.79768,-0.25732,0.02144,-0.84871,-0.37321,-0.07341,-0.68255,-0.56216,-0.69735,-0.34729,-1.0513,-0.6163,-0.0512,-0.42873,-0.45776,-0.32334,-0.089,-0.15919,-0.4267,-0.86481,-0.10372,-0.9191,-0.77354,0.6729,1.1703,0.9516,0.9906,0.68432,0.39023,0.7584,0.64675,0.9316,0.53551,1.292,1.2401,0.9125
0.90936,0.61782,0.66977,0.85493,0.47078,0.46833,0.51473,0.94252,1.2181,0.95227,1.0312,0.9366,0.79091,0.37842,0.53735,0.54896,1.1086,0.39382,0.8277,0.57859,0.72582,0.58737,-0.1444,-0.01203,0.35488,0.32591,0.7984,0.38975,-0.12751,0.62588,-0.23333,0.56853,0.49336,-0.43929,0.18958,0.28312,-0.39269,0.03269,-0.5014,-0.6064,-0.04187,-0.30936,0.10524,0.28468,-0.1617,-0.24786,-0.31225,-0.03307,-0.08321,0.05382,-0.63363,-0.52868,-0.13023,-0.13885,-0.52959,-0.42677,-0.27205,0.05518,-0.02038,-0.62647,-0.5121,-0.53399,-0.25099,-0.59971,-0.04231,-0.13288,-0.87112,-0.55425,-0.56969,-0.07887,-0.46731,-0.92128,-0.19488,-0.47279,-0.7999,-0.84377,-0.51699,-0.83729,-0.56609,-0.66149,-1.0467,-0.14892,-0.83564,-0.57023,-0.82266,-0.36147,-0.01915,-0.16262,-0.39526,-0.74263,-0.17672,-0.03993,-0.49426,0.0457,-0.97328,-0.14115,-0.15384,0.2124,-0.62474,-0.23287,0.04285,-0.57323,-0.36098,-0.21747,-0.13666,-0.234,-0.01155,0.9277,1.3153,0.26641,0.782,0.9437,0.59229,0.793,0.45785,1.2357,0.74202,0.9867,1.3427,0.60984
0.51488,0.39243,0.9762,0.80981,1.1523,0.54114,0.97332,0.92983,0.34902,0.39332,1.1842,0.5682,1.187,0.90659,1.3033,0.78524,1.2449,0.85689,0.74742,0.32481,0.1795,0.37729,0.21549,0.8384,0.37199,0.60845,0.41289,0.8703,-0.07858,0.34853,-0.04905,-0.19765,0.37937,-0.26118,0.2966,-0.35924,0.17675,-0.20748,0.0523,0.0516,-0.22371,0.27522,0.10024,0.03346,0.23407,-0.07591,-0.18386,0.02252,-0.10286,0.17062,-0.36599,-0.77755,-0.40697,-0.47233,-0.59654,-0.55663,-0.76684,-0.07136,-0.04346,-0.76041,-0.46117,-0.31012,-0.4515,-0.32097,-0.89954,-0.50329,-0.57881,-0.62625,-0.55976,-0.26833,-0.33529,-0.19095,-0.79151,-1.024,-0.41879,-0.26938,-0.6093,-0.42338,-0.14118,-1.0222,-0.12445,-0.61376,-0.56151,-0.66213,-0.66297,-0.76199,0.06734,-0.49506,-0.56377,-0.63853,-0.27157,-0.64973,0.10397,-0.62442,-1.0632,-0.77273,-0.57019,-0.39814,-0.12961,-0.03242,-0.6989,-0.43553,-0.25429,-0.61264,-0.15541,-0.68433,0.25436,1.3831,1.0271,0.53969,0.45627,1.2446,1.0698,0.9514,0.7272,1.2572,0.4956,0.883,0.4758,0.9232
0.75515,1.2403,0.8372,0.4773,0.7179,0.72504,1.2322,0.89999,0.69151,0.52179,1.1082,0.4115,0.5665,0.50878,1.0753,0.88634,0.5303,1.2255,0.72654,0.07241,0.747,0.8281,0.44857,0.20878,0.29111,0.47652,0.74485,-0.03002,-0.0142,0.47291,0.43923,0.7485,-0.16195,0.18736,-0.40155,-0.29978,0.3615,-0.54788,0.13202,-0.16231,-0.37301,0.18837,0.2309,-0.58949,-0.4695,0.22957,-0.67404,-0.67408,-0.83743,-0.11862,-0.76924,-0.76467,-0.2998,-0.10539,-1.0237,-0.34588,-0.28959,-0.72901,-0.82088,-0.50596,-0.64246,-0.34829,-1.0314,-0.6297,-0.27238,-0.40579,-0.29496,-0.1984,-0.43172,-0.78871,-0.09545,-0.39244,-0.29428,-0.62574,-1.0928,-1.0182,-0.39013,-0.21752,-0.92306,-0.12156,-0.83654,-0.06966,-0.57109,-0.67336,-0.48453,-0.70621,0.02732,-0.569,-0.64531,-0.19613,-0.58494,-0.66353,-0.34585,-1.0177,-0.08459,-0.55672,-0.48254,-0.27912,-0.5151,-0.03327,0.12391,-0.02706,-0.82366,-0.13445,-0.02551,0.09208,0.7709,0.9518,0.8832,0.35876,1.0817,1.2776,0.73042,0.9466,0.8739,1.1988,0.4504,0.978,0.9477,0.74508
0.48725,0.60218,0.33706,0.68322,0.35689,1.1005,1.0533,0.71205,0.72612,1.1247,1.0114,0.42647,0.56336,0.36791,1.0809,0.69713,0.7776,0.52234,0.9888,0.48868,0.35237,0.02392,0.8067,0.04073,0.10221,0.30364,0.21513,-0.0582,0.41645,0.1178,0.01319,0.48299,0.16655,0.44993,0.7015,0.6351,-0.20815,-0.24071,-0.37558,0.2733,-0.13106,-0.41946,-0.29503,0.11832,-0.54137,0.06202,-0.79568,0.0381,-0.16364,-1.0112,-0.54921,-0.05606,-0.53926,-1.0547,-0.63166,-0.78974,-0.63198,-1.2173,-0.91266,-0.45757,-0.75053,-0.78632,-0.64696,-0.27489,-0.48844,-1.1237,-0.8588,-0.92188,-0.49291,-0.36062,-0.25873,-0.34818,-1.0248,-0.99446,-0.27711,-0.30486,-0.88076,-0.45911,-0.12387,-0.95338,-0.31545,-0.16586,-0.41405,-0.69087,-0.41071,-0.67309,-0.38405,-0.29699,-0.20209,-0.03835,-0.46452,0.05097,-0.15389,-0.96793,-0.93072,-0.48909,0.14673,-0.47408,-0.46572,-0.13941,-0.65434,-0.32748,0.09997,-0.72278,-0.55161,0.5837,0.69244,1.1406,0.16196,0.66572,0.9558,1.3158,1.1417,0.16573,0.64886,0.9553,0.9413,0.9544,1.397,0.76003
0.25286,0.32108,1.2233,1.1243,0.61139,1.2822,0.80847,0.6077,0.81521,0.65211,1.2684,0.89501,1.0201,1.2511,0.76695,0.54355,0.84726,0.88034,0.69577,0.64957,0.6853,-0.10315,0.42357,0.03766,0.01805,0.8066,-0.01355,0.72517,0.45027,0.66667,0.64979,0.46889,0.04903,0.7157,-0.01832,0.45066,0.50685,0.36451,-0.27198,0.10521,0.12567,0.12453,0.3442,-0.59026,-0.14367,-0.39186,0.03893,-0.38669,-0.62279,-0.3281,-0.49737,-0.19555,-0.52652,-0.24825,-1.0748,-1.0838,-0.56343,-1.3875,-1.2587,-1.4114,-0.68732,-0.95947,-0.84165,-0.97225,-1.0222,-1.2571,-0.86553,-0.65762,-0.46748,-0.85176,-0.81032,-0.14574,-0.18839,-0.41986,-0.46683,-1.1105,-0.23179,-0.60143,-0.1383,-0.97809,-0.46463,-0.23022,-0.15036,-0.80283,-0.39659,-0.84694,-0.19483,-0.68348,-0.2568,-0.5046,-0.54494,-0.02766,-1.0896,-0.53782,-0.68519,-0.41839,-0.75075,-0.7551,-0.47791,-0.77626,-0.48755,-0.35872,0.14625,-0.06805,-0.22625,0.9072,0.9644,1.0224,0.5371,1.089,0.9828,0.9385,0.58729,0.14044,0.52192,0.49774,0.33125,0.7937,0.46783,1.1185
0.9651,0.73013,0.3806,0.58695,1.2491,0.95291,0.79442,0.62576,0.55909,0.50689,0.77727,1.0717,1.2598,1.0628,0.45533,0.75694,1.2662,0.84008,0.66982,0.72412,-0.08092,0.55197,0.64851,0.57662,0.7745,0.3003,0.26537,0.40963,0.0016,0.8164,0.9135,0.04749,0.37795,-0.10543,-0.07692,-0.15721,0.17623,0.15292,-0.00039,0.18544,-0.27859,0.26002,0.25299,-0.4274,-0.49616,-0.13264,-0.09523,-0.25507,-0.12634,-0.19082,-0.27181,-0.90488,-0.01152,-0.57776,-0.5045,-0.98038,-0.72905,-0.66152,-1.0007,-1.2825,-1.5238,-1.2812,-1.1731,-0.73049,-0.948,-1.5787,-1.5401,-1.3236,-1.1679,-0.66724,-1.2074,-0.5724,-0.47548,-1.0347,-0.68662,-1.0535,-1.1213,-0.91886,-0.77719,-0.06975,-0.75263,-0.8465,-0.24098,-0.30459,-0.07324,-0.60237,-0.56572,-0.61276,0.03097,0.06904,-0.55373,-0.34287,-0.44903,-0.82393,-0.36235,-0.44719,-0.07942,-0.62183,-0.56326,0.09023,-0.18861,-0.08491,-0.79788,-0.15292,0.7112,1.0505,1.0856,1.1095,0.7723,0.54354,0.71417,0.26829,0.42855,0.9852,0.8219,1.1509,0.8423,0.8741,0.71439,1.0724
0.78386,0.31211,0.54103,0.85215,0.7983,1.1417,0.86329,0.76603,0.38721,1.0939,0.55748,0.91963,0.73639,0.56398,0.66607,1.1094,1.2859,0.50054,1.0829,0.91856,0.61447,-0.13587,0.16711,0.73435,0.33939,0.16894,0.7739,0.48858,0.02063,0.16261,0.70419,0.35169,0.751,0.47346,0.39598,0.35129,0.30986,-0.27054,-0.04873,0.52346,0.64653,0.08917,0.63959,0.00516,0.43833,0.23189,-0.22135,-0.28386,0.00294,-0.22896,-0.35175,-0.52418,-0.49219,-0.26127,-0.07814,-0.80509,-0.20321,-0.61324,-0.278,-0.2589,-0.8142,-1.1872,-1.1853,-0.35864,-0.96736,-1.1051,-0.41516,-0.4816,-0.33369,-0.79226,-0.6428,-1.0579,-1.4732,-0.88909,-1.3016,-0.75863,-0.83799,-0.71756,-0.18278,-0.48641,-0.18016,-0.32547,-0.08815,-0.67183,0.11101,-0.18193,-0.0552,-0.16119,-0.20557,-0.31238,0.1547,-0.63557,-1.27,-0.80426,-0.44165,-0.67136,-0.26975,-0.59214,-0.13231,-0.13518,-0.15329,-0.24601,0.12909,0.10493,0.69099,0.74797,0.9058,0.8165,0.76857,1.0012,0.26313,0.60537,0.13234,0.943,1.0465,0.22915,1.152,1.1346,1.3405,0.7663
0.39829,0.89066,0.60409,0.57731,0.78848,0.31958,0.63084,1.0517,1.2358,0.46831,0.9663,0.9916,0.92713,0.48977,0.83281,0.87889,0.90717,0.38894,0.66822,0.92795,0.7256,0.9151,0.35196,0.788,0.73692,-0.03773,0.14017,0.30247,0.37428,0.781,0.8783,0.46484,0.7719,-0.05193,-0.13817,0.54829,-0.15663,0.28816,0.7395,0.00862,0.54757,0.26054,0.08284,-0.07924,0.70018,0.51325,-0.10781,-0.08197,-0.03444,-0.15797,0.16493,-0.27906,-0.20024,-0.23336,-0.54074,-0.2756,-0.65631,-0.16578,0.15849,-0.21884,-0.1389,-0.30407,-0.31532,-0.10673,-0.0898,-0.60184,-0.24911,-0.02944,0.36934,-0.22628,-0.28441,-0.97774,-0.39411,-0.69466,-0.48215,-1.0751,-0.53075,-0.62314,-0.09103,-0.14461,-0.04311,-0.71324,-0.24372,-0.44349,-0.1004,-0.6443,-0.68249,-0.52448,0.03046,0.223,-0.32666,-0.45138,-0.48702,-0.52851,-0.57492,-0.03807,-0.55894,0.00156,-0.70914,-0.59939,-0.81124,-0.47254,0.0502,0.43531,0.9649,0.76835,1.0143,1.1613,0.15223,0.07562,0.9236,0.7333,0.06103,0.15659,0.6999,0.61905,0.62901,1.2195,1.199,0.31541
0.78136,0.57932,0.22093,0.75014,0.23768,0.72488,1.1365,0.3046,0.72884,0.3558,0.90591,0.44954,1.1931,0.57945,0.63406,0.75595,0.80154,1.1577,1.0708,1.1473,0.82004,0.9646,0.50541,-0.15118,0.14909,0.61532,0.62925,0.75805,0.62394,0.26937,0.315,0.59971,0.4344,-0.03053,-0.10088,0.18972,0.36637,-0.1952,0.25034,0.35229,0.9776,0.44806,0.33139,0.8759,0.26907,0.50042,0.9343,0.9377,0.35023,0.68528,0.35248,0.62741,0.34608,0.00327,-0.34568,-0.09454,0.29972,-0.37482,0.19071,-0.35682,0.03442,0.07193,0.1902,0.37281,-0.13528,0.04566,0.00794,0.12193,0.04151,-0.27498,-0.15901,-0.37433,0.31672,0.17971,-0.60545,-0.22557,-0.33798,-0.43209,-0.5643,-0.64914,-0.03658,-0.07884,-0.43555,-0.47466,-0.1956,0.03655,-0.56361,0.0433,-0.56361,0.1753,-0.70425,-0.53914,-0.71346,-0.49132,-0.95617,-0.60567,-0.82797,-0.37126,-0.62789,-0.2949,-0.54131,-0.30566,-0.25333,0.72176,1.0984,1.112,0.53317,0.8039,0.2809,0.36505,-0.07374,-0.19735,0.13583,0.25101,0.7555,1.0921,0.8039,1.2738,1.087,0.56609
-0.06046,0.41746,0.31366,0.60774,0.7422,1.0665,0.52631,0.64661,0.96775,0.94303,1.1651,1.1999,0.3607,1.0671,0.50485,0.70331,0.84946,1.1193,0.57352,0.6313,0.94613,1.2039,0.8919,0.09178,0.11679,0.28789,0.00869,0.62243,0.03733,0.54612,0.24165,0.49234,0.34463,0.25214,-0.00746,0.46741,0.6824,-0.05502,0.16131,0.768,0.8185,0.26135,0.22051,0.81915,0.26277,0.80461,0.44924,0.9606,0.41979,0.67302,0.8193,0.29801,0.23515,-0.04789,0.31087,0.35201,0.7745,0.34817,0.6124,0.04541,-0.27693,-0.2875,0.09097,0.10561,0.28405,0.10293,0.23959,0.34849,0.26046,0.00345,-0.10472,-0.28534,-0.02715,0.5557,-0.22064,0.5645,0.12603,-0.16079,-0.34806,0.3156,-0.33744,-0.57198,0.12837,0.1931,-0.09739,0.1939,-0.34207,-0.45408,-0.4003,-0.63307,-1.2407,-0.71162,-0.52732,-0.20599,-0.44724,-0.46793,-0.78756,-0.42951,-0.02957,0.01967,-0.61255,0.18422,1.1363,0.74919,1.1092,1.3709,1.1351,0.75509,0.43723,0.60024,0.7108,0.27738,0.37251,0.9355,0.6481,0.59164,0.58581,0.29825,0.11821,0.8286
-0.18426,0.87419,1.001,0.69981,0.79137,0.24416,0.62354,0.9932,0.70156,0.86742,1.1333,0.32524,0.78008,1.2358,0.55908,1.0195,1.1381,0.32682,0.53427,1.1221,1.058,1.1712,1.1093,0.61658,0.73242,0.43372,-0.01132,0.61032,0.04872,0.45933,0.74063,0.72885,0.26535,0.37377,-0.02917,0.27393,0.11025,0.59254,0.39914,0.30296,0.40941,0.8365,0.54459,0.14693,1.0113,0.42726,0.31388,0.30242,0.29043,0.15086,0.109,0.04919,0.69507,0.66848,0.39375,0.4952,0.7428,0.23537,0.08709,0.51254,-0.15506,0.44381,-0.06709,0.40658,0.7611,0.26974,0.22837,0.13273,0.5206,0.27782,0.29982,0.724,0.7216,0.25625,0.5978,0.12026,0.48185,0.03707,0.33357,0.14482,0.8554,-0.15504,-0.27978,0.342,0.2215,-0.67617,-0.51751,-0.27865,0.2412,-0.39909,-0.60501,-0.58044,-0.97815,-0.23204,-0.71037,-0.70209,-0.64042,-0.03115,-0.39995,-0.45333,-0.06752,0.813,1.3132,1.1596,0.63511,0.917,0.51669,0.29696,1.0006,0.16554,0.39569,-0.21104,0.55387,0.66404,0.51794,0.51282,0.7027,0.9243,0.36728,1.2285
